// Layer 0 weights (196, 32)
const float layer0_weights[196][32] = {
  {0.14416640f, 0.11536779f, 0.15081199f, -0.01186103f, 0.02824679f, -0.14705311f, 0.15414424f, -0.02503459f, -0.06547956f, 0.07306407f, 0.08302574f, 0.04859018f, -0.09632658f, -0.00297040f, -0.09869677f, 0.02747509f, -0.14501439f, -0.15216635f, 0.14106236f, -0.00471394f, 0.01530553f, 0.02160622f, -0.10844330f, 0.08316934f, 0.02066827f, 0.15341039f, -0.14225183f, -0.00953436f, 0.14052849f, -0.08959256f, 0.07043578f, 0.13982736f},
  {0.02034912f, -0.01045406f, 0.03765705f, 0.14628322f, -0.01291817f, -0.04811164f, -0.10850202f, 0.06041946f, -0.10990524f, 0.03402068f, -0.11813988f, 0.05624150f, 0.08599490f, 0.03507584f, 0.05685398f, 0.00765844f, -0.10460818f, 0.05843779f, -0.15228087f, 0.09641255f, -0.11011267f, -0.15877746f, -0.05370714f, -0.06740229f, 0.16176294f, -0.11102694f, -0.08808197f, 0.15396671f, 0.04369628f, 0.08753772f, 0.15422405f, -0.00711997f},
  {0.25972769f, -0.02533267f, 0.24053353f, -0.03140660f, 0.12839071f, -0.12603393f, 0.06061891f, 0.05376581f, -0.16085148f, 0.01672329f, 0.05410523f, 0.15835992f, 0.01808915f, -0.00252701f, 0.15639584f, -0.08075696f, -0.03429005f, -0.01012266f, -0.22049360f, -0.07467806f, -0.00999839f, 0.00320084f, -0.04806193f, 0.01626707f, -0.30959672f, 0.09323474f, 0.12668353f, -0.03019011f, 0.13088579f, 0.11175032f, 0.14520927f, 0.03758667f},
  {0.44376665f, -0.42391542f, 0.37917984f, -0.24210019f, -0.16932794f, 0.05362078f, -0.29808491f, 0.12849650f, -0.14728403f, 0.01184117f, 0.39126492f, 0.30994433f, -0.01794475f, 0.10035573f, 0.24396075f, -0.09825964f, 0.22877885f, 0.18704747f, 0.04552564f, -0.08733976f, -0.19133238f, -0.21289080f, -0.53740734f, -0.18866768f, -0.31781876f, 0.43149352f, 0.48451021f, -0.12296140f, 0.13355182f, 0.14870477f, -0.06861106f, 0.29205135f},
  {0.17905961f, -0.08079655f, 0.24309456f, -0.03615802f, -0.10022755f, -0.00891185f, -0.25504214f, 0.10608267f, 0.05803315f, 0.15342842f, 0.36931777f, 0.38294467f, -0.23804209f, 0.26732776f, 0.34024504f, -0.01543737f, 0.26750904f, 0.09682214f, -0.13136499f, -0.14731209f, 0.13253745f, -0.00228254f, -0.16753308f, -0.34202528f, -0.28434262f, 0.35733697f, 0.22133568f, 0.08297732f, 0.02921418f, 0.31349248f, -0.15781923f, 0.45295990f},
  {0.31612173f, 0.03024850f, 0.45377627f, -0.01794835f, -0.06378496f, -0.24258670f, -0.23807007f, -0.05764902f, -0.10334176f, 0.14257717f, -0.05544119f, 0.31758055f, 0.08149536f, 0.26570532f, 0.42327356f, -0.25678235f, 0.24616796f, 0.24686286f, -0.23364502f, -0.17687975f, 0.10096953f, 0.24589849f, -0.54735088f, -0.15048927f, -0.24597995f, -0.10355774f, 0.23887932f, -0.16719224f, 0.15318002f, 0.06671742f, -0.15678136f, 0.39326867f},
  {0.23565228f, 0.14629014f, 0.60981786f, -0.14505115f, 0.13245732f, -0.14403957f, -0.19742779f, -0.05299121f, -0.08223899f, 0.02691144f, 0.09395695f, 0.21952341f, -0.06449755f, -0.04862234f, 0.57522243f, -0.23716365f, 0.39119604f, 0.25819579f, -0.10369739f, -0.40405768f, -0.24187994f, 0.05947072f, -0.59065396f, -0.20535003f, -0.13893794f, -0.20462514f, 0.32733580f, -0.05938864f, 0.29805645f, 0.15916942f, -0.02457428f, 0.43451503f},
  {0.55178535f, -0.31394354f, 0.39572957f, -0.06730943f, 0.09377138f, 0.15967253f, -0.24794766f, -0.03499491f, -0.25628066f, 0.25956216f, 0.10703976f, -0.02881679f, -0.15264608f, -0.16066521f, 0.52646875f, 0.09457698f, 0.38106725f, 0.14305609f, 0.16299602f, 0.06641000f, -0.04249090f, -0.00932796f, -0.62019819f, 0.26826391f, -0.45673242f, 0.17498071f, 0.42486507f, 0.02600532f, 0.02235717f, 0.30973446f, 0.02245421f, 0.20806724f},
  {0.39810604f, 0.15934759f, 0.34374851f, -0.08880527f, -0.16525872f, -0.39205456f, -0.24769908f, 0.05564196f, -0.10224478f, 0.34398320f, 0.23332779f, 0.20985371f, 0.11685470f, -0.28864399f, 0.50596112f, -0.07626404f, 0.17935610f, 0.45119247f, 0.16415274f, -0.12466180f, -0.32842413f, -0.00168567f, -0.23315428f, 0.25325879f, -0.32659847f, 0.19053157f, 0.14585666f, 0.31920558f, -0.17628856f, 0.43123394f, -0.08177724f, 0.32205781f},
  {0.27165374f, 0.13280214f, 0.50044793f, 0.20382716f, 0.24683489f, -0.36711928f, -0.07602654f, 0.05228125f, 0.06044034f, -0.09470040f, 0.26437920f, 0.10447081f, -0.08609455f, 0.16871117f, 0.25332150f, -0.34587061f, 0.32036772f, 0.10571165f, -0.16657470f, -0.25243899f, 0.10874893f, -0.29736462f, -0.50927323f, -0.47933689f, -0.40430987f, 0.09329075f, 0.37414941f, -0.18090993f, 0.17394291f, 0.19967449f, 0.48476937f, 0.21186283f},
  {0.20667465f, -0.20630342f, 0.27750087f, 0.01828339f, 0.26278993f, -0.43405756f, -0.20658354f, -0.10615715f, -0.08000575f, -0.09010578f, 0.32651669f, 0.12294358f, -0.09208963f, 0.16433077f, 0.34389874f, -0.39837840f, 0.25548932f, 0.10319664f, -0.22401756f, -0.19678760f, 0.03051167f, -0.19798006f, -0.39533040f, -0.33474177f, -0.46780741f, 0.11791265f, 0.26323715f, 0.08111476f, 0.30377060f, -0.03987601f, 0.26192871f, 0.40849549f},
  {0.29034120f, -0.13619223f, 0.28310245f, -0.10224343f, -0.09050776f, -0.17086835f, -0.28637645f, -0.00397114f, -0.04581431f, 0.26863521f, 0.38569686f, 0.38042232f, 0.05908342f, 0.21653812f, 0.25383085f, -0.36647421f, 0.20118855f, 0.29346475f, -0.02888785f, 0.10301324f, -0.19603908f, -0.20506647f, -0.11397003f, -0.10651544f, -0.30339915f, 0.11731809f, 0.11190717f, 0.12463932f, 0.11596082f, -0.02674767f, 0.20646940f, 0.18141431f},
  {-0.07583456f, -0.03704777f, -0.01711586f, -0.05109361f, -0.14735034f, -0.00815040f, 0.12715469f, -0.05633765f, 0.12685733f, 0.14954476f, 0.05737062f, 0.03819148f, -0.12112091f, 0.14456032f, 0.02199276f, 0.10365434f, -0.02178846f, -0.11264308f, -0.08393607f, 0.14567541f, 0.01849310f, -0.01959781f, -0.11485612f, -0.12529981f, -0.16038431f, -0.11393279f, 0.15382148f, 0.14170055f, 0.00313509f, 0.04694949f, -0.15675041f, 0.01470445f},
  {-0.02096887f, 0.01714425f, -0.05954359f, 0.02181074f, -0.12079653f, 0.15575601f, 0.00639544f, -0.12674847f, -0.02456707f, 0.01325102f, -0.01844816f, 0.04062864f, 0.09135203f, 0.14621238f, 0.05809295f, 0.01179621f, 0.12449874f, 0.12141670f, -0.03166743f, -0.01537535f, -0.15342261f, 0.15522440f, -0.13612914f, -0.15683246f, 0.11002736f, 0.08493111f, 0.09996872f, 0.01176763f, 0.11962722f, -0.02237062f, 0.10320418f, 0.13617687f},
  {0.04712412f, 0.00129184f, 0.08701910f, 0.02365376f, 0.03334263f, -0.08256522f, -0.12852764f, 0.15351878f, -0.06681444f, -0.14501873f, 0.06738488f, -0.10791971f, -0.07433639f, -0.00397700f, -0.01453900f, 0.14938326f, 0.13424180f, 0.14069901f, -0.02250217f, 0.04320765f, -0.11453205f, -0.11125792f, -0.12110877f, -0.08390030f, 0.13755952f, 0.10353710f, -0.12927136f, 0.12195204f, -0.02626431f, 0.01968476f, 0.13051562f, 0.01872098f},
  {0.24781170f, 0.14620601f, 0.28975606f, -0.11855398f, -0.17294015f, -0.05588346f, -0.27806112f, -0.05930731f, -0.11987802f, 0.23230992f, -0.27617833f, 0.34452221f, -0.12527567f, -0.09906767f, 0.11466814f, -0.33624429f, -0.04051135f, 0.04736177f, -0.04195807f, -0.09368017f, -0.29056582f, 0.00170157f, -0.36560342f, 0.15169753f, -0.17655019f, -0.20644069f, 0.04898745f, -0.16672438f, 0.04554931f, 0.14580959f, 0.20857412f, 0.07729279f},
  {0.05772301f, 0.10491813f, -0.11096261f, 0.13502476f, 0.39416051f, -0.17330803f, 0.19487011f, 0.27985719f, 0.14015810f, -0.25036389f, -0.11973020f, -0.15293182f, -0.21030648f, 0.00895076f, -0.03090709f, -0.18292052f, 0.19192320f, -0.17400242f, -0.26715985f, 0.13386261f, 0.13782628f, 0.19275664f, -0.36470228f, -0.09341389f, -0.21367066f, 0.15676215f, 0.11327283f, -0.08165501f, -0.00372751f, -0.13845174f, -0.11829954f, 0.55492145f},
  {0.41005203f, -0.21669012f, 0.03754553f, 0.14507005f, 0.13948335f, -0.20158507f, -0.04649448f, 0.16648075f, -0.09892249f, -0.18113115f, -0.21526490f, 0.00096032f, -0.17938259f, 0.04758738f, 0.42699653f, -0.19171989f, 0.33342278f, 0.29625133f, -0.26064697f, -0.02180269f, 0.35626522f, 0.06310523f, -0.39399183f, -0.32628113f, -0.47137693f, 0.20828763f, 0.31931868f, -0.10715516f, 0.21225809f, 0.13590568f, -0.17849565f, 0.66221917f},
  {-0.03213777f, -0.07552779f, 0.35674718f, -0.02098958f, 0.12091781f, -0.48911995f, -0.29346269f, 0.50557584f, -0.03079979f, -0.02867845f, 0.29498935f, 0.12333959f, 0.21926442f, 0.12898032f, 0.49031967f, -0.47510853f, -0.01868229f, 0.51496506f, 0.26464018f, -0.11070328f, 0.15648791f, -0.01017659f, -0.57927573f, -0.01395772f, -0.61627960f, 0.65379512f, 0.24257703f, 0.29789940f, -0.27307469f, 0.22346292f, -0.58460474f, 0.58959186f},
  {0.19852266f, 0.01616618f, 0.25728148f, 0.04088400f, -0.05341613f, -0.44128227f, -0.09327273f, 0.63002443f, -0.46950737f, -0.12946132f, 0.19217378f, 0.12200027f, 0.22379811f, 0.25113043f, 0.73346841f, -0.69654405f, -0.01974723f, 0.44527215f, 0.35196885f, 0.00791781f, 0.02807246f, 0.00543043f, -0.59180474f, -0.10899461f, -0.72506678f, 0.47771508f, 0.31657916f, 0.23909271f, -0.27957305f, 0.20182170f, -0.55874115f, 0.59719777f},
  {0.56454164f, -0.29735452f, 0.31324449f, -0.16088100f, 0.12639806f, -0.43668401f, 0.06630655f, 0.52117038f, -0.36802268f, 0.08934268f, 0.12596643f, 0.06192579f, -0.17302571f, -0.13865490f, 0.55109471f, -0.70140612f, 0.34604427f, 0.43251804f, 0.45257762f, 0.21185140f, 0.05480222f, 0.08950435f, -0.53885567f, 0.07038133f, -0.70527601f, 0.50911105f, 0.25165147f, 0.04440244f, -0.27356446f, 0.31481203f, -0.65900880f, 0.44762528f},
  {0.19566317f, -0.23843460f, 0.08893909f, -0.15728216f, 0.21937157f, -0.72082520f, -0.11072589f, 0.20632844f, -0.45631120f, -0.04582765f, 0.09815478f, -0.10158511f, -0.32103911f, -0.01047973f, 0.50315046f, -0.65111220f, 0.38177872f, 0.34346533f, 0.33800125f, 0.10943002f, 0.09227115f, -0.01291928f, -0.33402765f, -0.16046983f, -0.41645825f, 0.43058601f, 0.00701448f, -0.22423735f, -0.10750765f, 0.61169028f, -0.45596790f, 0.12866245f},
  {0.26479709f, -0.21903443f, 0.17257752f, -0.05665166f, 0.10966919f, -0.74401402f, -0.07739520f, 0.16648342f, -0.40930963f, -0.21934837f, 0.00568345f, -0.08492830f, -0.45285809f, 0.06607789f, 0.20480743f, -0.54747301f, 0.13352530f, 0.28577536f, 0.31643686f, 0.06400046f, -0.01674527f, 0.10687101f, -0.15403485f, -0.24993661f, -0.52908146f, 0.44860256f, -0.06885269f, -0.27527767f, 0.01918336f, 0.35082427f, -0.20394127f, 0.32115549f},
  {0.44090411f, -0.36829695f, 0.00594195f, -0.03706090f, 0.31699005f, -0.58806950f, -0.07568903f, 0.26369873f, -0.09483627f, -0.26949692f, -0.07817843f, -0.12166233f, -0.36040217f, 0.32785925f, 0.23460874f, -0.22016126f, 0.18801868f, 0.04114707f, -0.16407956f, -0.21122462f, 0.45503631f, 0.05032285f, -0.18265186f, -0.52980298f, -0.29253182f, 0.30642897f, -0.06865346f, -0.20728688f, 0.35215944f, 0.28028095f, 0.20483293f, 0.15601897f},
  {0.36370397f, -0.16361851f, -0.30036557f, 0.13273494f, 0.17800355f, -0.43566459f, 0.09928486f, 0.10346647f, -0.30811328f, -0.25942031f, 0.02939930f, -0.36787921f, -0.03963519f, 0.38767892f, 0.10994155f, -0.40386671f, 0.14943026f, -0.15937717f, -0.52564383f, -0.11882177f, 0.40138355f, -0.08455690f, 0.08214110f, -0.23962918f, -0.06760738f, 0.20744634f, 0.03568563f, -0.02324058f, 0.45480090f, 0.18660258f, 0.33010632f, 0.08185305f},
  {0.36692441f, 0.00417205f, -0.15139735f, 0.27193597f, 0.18105781f, -0.35397905f, -0.09462809f, -0.17568071f, -0.52352947f, -0.35784069f, 0.15665792f, -0.05590863f, -0.22458546f, 0.62226391f, 0.09116366f, -0.48547831f, 0.01414734f, -0.47169134f, -0.66033852f, -0.21001942f, 0.57727373f, -0.03462651f, -0.17886817f, -0.47943899f, -0.12656684f, 0.02437065f, 0.21218617f, 0.15981933f, 0.42698711f, 0.06167542f, 0.46446720f, 0.00580828f},
  {0.15135126f, -0.04693867f, -0.00714774f, 0.26311162f, -0.02046024f, -0.34286091f, 0.03778768f, -0.02142068f, -0.50368249f, -0.00222845f, 0.22679879f, 0.22287537f, 0.06609440f, 0.09278991f, 0.31810066f, -0.10531809f, -0.11501513f, 0.06318741f, -0.46356383f, -0.29754093f, -0.14296345f, -0.29489896f, 0.04071444f, 0.10972751f, -0.02321332f, 0.03441034f, 0.06369995f, 0.13426295f, 0.12831944f, -0.04710526f, -0.05281900f, 0.15080927f},
  {-0.02379533f, 0.20509967f, 0.15646903f, -0.02772421f, 0.05454870f, -0.11135635f, 0.07330832f, 0.22013947f, -0.29614374f, 0.17126067f, -0.07748989f, 0.02811585f, 0.03896964f, 0.20546144f, 0.09155429f, -0.20294990f, -0.06505998f, -0.08955447f, -0.07500204f, 0.07476072f, 0.07791843f, -0.07124103f, 0.00620959f, -0.24590605f, -0.15224943f, 0.07436725f, 0.18526410f, 0.01241538f, 0.24453239f, -0.08593443f, 0.08860897f, 0.27168691f},
  {0.15955764f, 0.05228901f, -0.09603792f, 0.01489453f, 0.01444963f, 0.05565965f, 0.17131545f, 0.06018956f, 0.00161238f, -0.04961484f, 0.04899837f, 0.03448630f, 0.07420456f, -0.06350420f, -0.16629834f, -0.04235224f, 0.08000204f, 0.05321984f, 0.14157897f, -0.05876165f, 0.13716470f, 0.04257326f, -0.03296458f, 0.01203560f, 0.09833639f, 0.13320412f, -0.08895473f, -0.09523471f, -0.09598596f, -0.12530677f, -0.16563053f, -0.09121983f},
  {-0.30262858f, 0.30888903f, -0.05482790f, -0.17400683f, 0.38595131f, 0.05735137f, 0.44580835f, 0.36887455f, 0.29203883f, -0.04427687f, -0.32183278f, -0.27975869f, 0.17243975f, -0.43179321f, -0.22811365f, -0.21998075f, -0.18467478f, 0.10797622f, 0.29260561f, 0.37277833f, 0.46541998f, 0.30170095f, 0.20569091f, 0.13747089f, -0.44002539f, 0.09810902f, -0.20732857f, -0.20089065f, -0.28152102f, -0.21371561f, 0.04229973f, 0.08539364f},
  {-0.26614016f, -0.07504224f, -0.31600019f, 0.31686318f, 0.40049917f, -0.06156978f, 0.20032503f, 0.06802688f, 0.36374742f, 0.20645678f, -0.25688076f, -0.57142889f, 0.22278857f, -0.32122710f, 0.00846144f, -0.34524995f, -0.19424284f, 0.11535893f, 0.06372242f, 0.42738864f, 0.24082987f, 0.00273727f, 0.17439476f, 0.14809607f, -0.16021281f, -0.09413215f, -0.08339513f, 0.10389268f, -0.45307967f, -0.24721706f, -0.15506954f, 0.18200138f},
  {-0.22486368f, -0.08811344f, -0.07341506f, 0.13320492f, 0.19435251f, -0.32196710f, 0.24183694f, 0.15869541f, 0.29064557f, 0.12434836f, -0.13912736f, -0.16444199f, 0.16145384f, 0.03094981f, 0.07124888f, -0.53539693f, 0.10228278f, -0.10344397f, 0.13295183f, 0.26621523f, 0.37795031f, 0.10770319f, 0.08048759f, 0.25083584f, -0.18377732f, -0.01339383f, -0.05498580f, 0.17151417f, -0.41790506f, -0.09575673f, -0.42620423f, 0.05801065f},
  {0.00080415f, -0.06544401f, -0.05268572f, 0.09239137f, 0.25333509f, -0.41997036f, 0.11145675f, 0.09155484f, -0.19263454f, -0.03673866f, 0.15433507f, -0.06600893f, 0.22026174f, 0.29845256f, 0.04428980f, -0.40604216f, -0.12513369f, 0.11297888f, 0.05266809f, 0.23020799f, 0.16137469f, 0.05861596f, -0.32263362f, 0.14817217f, -0.29378799f, 0.24062353f, -0.25269878f, 0.30849531f, -0.71740532f, 0.14665662f, -0.69135159f, 0.10084271f},
  {0.28768563f, 0.35682234f, -0.16892532f, -0.21688551f, -0.08290821f, -0.26709393f, -0.00773910f, 0.25225446f, -0.07466399f, 0.10985656f, -0.01740535f, 0.02334052f, 0.06658922f, 0.17515446f, 0.10541438f, -0.33631262f, -0.17800471f, -0.07172201f, 0.21715774f, 0.15201364f, 0.25545010f, 0.22165135f, -0.17589109f, 0.20289589f, -0.22310379f, 0.21562515f, -0.27176613f, 0.45075125f, -0.26572251f, 0.21620482f, -0.62465519f, -0.07876685f},
  {0.34124714f, 0.39589962f, 0.02399185f, -0.23418504f, 0.02612131f, -0.37601757f, -0.10729158f, 0.14345056f, 0.06578226f, 0.32467511f, 0.16719446f, 0.10588231f, 0.14641936f, -0.08230621f, -0.11452917f, -0.28852043f, -0.02309303f, -0.24232663f, 0.27570766f, 0.09726131f, 0.08016950f, 0.23288880f, -0.12704287f, -0.07784655f, 0.03616524f, 0.29784828f, -0.15061261f, 0.17883161f, -0.20398279f, 0.09871283f, -0.25039732f, -0.24138139f},
  {0.31517383f, 0.00203276f, 0.12581679f, -0.37037334f, -0.04771237f, -0.26132849f, -0.13703965f, 0.29170239f, 0.08976687f, 0.06717496f, 0.11736530f, 0.10704993f, -0.00650276f, 0.14355658f, 0.11072382f, -0.32101199f, -0.09274595f, 0.03580678f, 0.41135260f, 0.11887559f, 0.04812131f, 0.36687249f, -0.08582186f, 0.15834421f, 0.12180962f, 0.14405288f, -0.02953987f, 0.17289414f, -0.19195542f, 0.06236760f, -0.04061129f, -0.30521241f},
  {0.18496379f, 0.04683793f, 0.25528097f, -0.42923841f, -0.10344020f, -0.52641541f, -0.41079429f, 0.51228046f, -0.03273373f, 0.00638591f, 0.17852263f, 0.09693649f, -0.11288445f, 0.03023967f, 0.10635314f, -0.38060790f, 0.10287279f, -0.06435096f, 0.25988993f, 0.04868743f, 0.06202250f, 0.31674114f, 0.25823164f, 0.21397494f, 0.24487725f, 0.23768923f, -0.04189631f, -0.34893799f, 0.06021193f, 0.16005163f, -0.16112252f, -0.12545767f},
  {0.34636745f, 0.20375197f, 0.19150281f, -0.24124628f, -0.11031309f, -0.72225016f, -0.18049708f, 0.26182052f, -0.04871898f, -0.30028230f, 0.17933713f, -0.19621864f, -0.17377014f, -0.09583893f, 0.17376293f, -0.37808478f, -0.05346519f, 0.12831032f, 0.09971112f, 0.13076824f, -0.00646298f, 0.25860906f, 0.29675058f, 0.23088709f, 0.00081063f, 0.21934989f, 0.15556741f, -0.37707648f, 0.19775325f, 0.18216117f, 0.32572255f, -0.12134651f},
  {0.13286535f, -0.07868326f, 0.10602561f, 0.13585263f, -0.00805418f, -0.26787060f, -0.48295245f, -0.13982245f, -0.13063255f, -0.18337385f, 0.12399360f, -0.22808129f, -0.08324860f, -0.15005054f, 0.11107548f, -0.19315457f, -0.40569821f, -0.02086018f, -0.17351849f, -0.22518438f, 0.26026860f, 0.18543768f, 0.29731107f, 0.21878704f, 0.05451699f, -0.03361210f, 0.38688508f, -0.23985226f, 0.11341809f, 0.16560625f, 0.23683481f, -0.18999517f},
  {0.22144240f, -0.07311659f, -0.05297441f, 0.36464301f, -0.03958615f, -0.06965346f, -0.34735900f, -0.21590155f, -0.16003191f, -0.38357589f, 0.23137492f, -0.59866840f, 0.05686399f, 0.23915389f, 0.12719761f, -0.14005435f, -0.40147117f, 0.04823152f, -0.38178483f, -0.05514898f, 0.34299344f, -0.04013108f, -0.07911305f, -0.09485386f, 0.26704949f, -0.16471937f, 0.15805541f, -0.04371158f, 0.32660338f, 0.29064086f, 0.22668906f, -0.12688556f},
  {0.26682708f, -0.18633783f, -0.25491646f, 0.21973827f, 0.00554901f, 0.01388379f, -0.07752886f, -0.16007340f, -0.25312778f, -0.22031714f, -0.04226963f, -0.26635244f, 0.08113847f, 0.38638300f, -0.05898114f, -0.04292847f, -0.34573379f, -0.19386958f, -0.44190595f, -0.27973574f, 0.55281883f, 0.08463220f, 0.07730925f, -0.11834359f, 0.39677495f, 0.24534537f, -0.07280517f, 0.14387448f, 0.28186214f, -0.02747930f, 0.38234442f, 0.11378466f},
  {0.31740624f, -0.12280650f, 0.02598203f, -0.20716287f, -0.09658223f, -0.29147747f, -0.20902529f, 0.09826579f, -0.52834982f, 0.23893125f, 0.10616998f, 0.26204816f, 0.28142756f, 0.25191560f, -0.03249172f, -0.01485532f, -0.20024472f, -0.05014582f, -0.12377302f, -0.06424463f, 0.11561825f, 0.12934998f, -0.01566678f, -0.33251938f, -0.03504802f, 0.37971491f, 0.13907500f, 0.01132275f, 0.06066819f, 0.26547810f, 0.27001032f, -0.09659048f},
  {0.04059130f, -0.41263813f, -0.27382848f, -0.11092373f, 0.43239069f, 0.02967613f, 0.14847620f, 0.34351018f, -0.11011881f, 0.26246381f, -0.22368878f, -0.13908613f, 0.10740934f, 0.06168237f, 0.32939535f, -0.23954676f, -0.24942867f, 0.34157231f, 0.22675274f, 0.41491279f, 0.16307767f, 0.13936947f, 0.02181909f, 0.22095479f, -0.42936781f, 0.02850941f, -0.03189295f, -0.21412428f, -0.40175414f, 0.33287436f, -0.47778827f, 0.30734771f},
  {-0.35105413f, -0.31906730f, -0.16321354f, 0.15584728f, 0.05623689f, -0.03743898f, 0.14862768f, -0.01037012f, 0.11046630f, 0.36606294f, -0.16293943f, -0.06027085f, 0.23154221f, 0.03888048f, -0.00984576f, -0.47759280f, -0.21524748f, 0.07291118f, 0.30467173f, 0.50584030f, -0.05675918f, 0.00442601f, 0.28967133f, 0.11139308f, -0.22665209f, -0.00742746f, -0.47793224f, 0.21899213f, -0.36091530f, -0.25404686f, -0.10848180f, 0.36731082f},
  {-0.38908738f, -0.23850593f, 0.01078934f, 0.08832690f, 0.25293177f, -0.11216165f, 0.19448996f, 0.24653825f, 0.19629553f, -0.11507101f, -0.23208632f, -0.48880848f, 0.28696039f, 0.21372709f, 0.08172187f, -0.47816998f, -0.37724340f, 0.12357026f, 0.22019431f, 0.44332641f, 0.14256281f, 0.00806454f, 0.49811265f, 0.44492993f, -0.00012159f, 0.15156853f, -0.35147566f, 0.01590577f, -0.45449030f, -0.17992958f, -0.19155918f, 0.24054237f},
  {-0.03478011f, -0.30330044f, -0.23806146f, 0.01544248f, -0.01749693f, -0.28887534f, -0.05297803f, 0.19824520f, -0.13560706f, 0.03715291f, -0.20233227f, 0.05966565f, 0.21116255f, 0.44699964f, -0.19862109f, -0.57599729f, -0.55890524f, 0.07776676f, 0.11138429f, 0.25552550f, -0.11862522f, -0.12641127f, 0.11376070f, 0.05422155f, -0.03242207f, -0.13250354f, -0.17978539f, 0.23064271f, -0.61591876f, -0.00352803f, -0.48971754f, 0.17651679f},
  {0.23966186f, -0.12778269f, -0.29332072f, 0.08750569f, -0.04904564f, -0.14459154f, 0.08929565f, 0.14203218f, 0.00001931f, -0.03780518f, -0.10376585f, -0.03334984f, 0.40684509f, 0.46762893f, -0.39172724f, -0.07804222f, -0.65638763f, 0.11743476f, -0.07736094f, 0.07135430f, -0.00931351f, 0.04300719f, 0.17416479f, -0.00831369f, 0.08338057f, 0.02716346f, -0.25794095f, -0.02203732f, -0.29234004f, -0.10491049f, -0.58353078f, 0.14389113f},
  {0.27680823f, 0.17557877f, 0.00944362f, 0.00504216f, -0.18523994f, -0.24997565f, 0.17840987f, -0.08248819f, -0.22985958f, -0.09722982f, 0.04721723f, 0.38492075f, 0.34274748f, 0.06687204f, -0.24426131f, 0.06941822f, -0.47274733f, 0.21441089f, -0.25451624f, 0.22251888f, 0.05126563f, 0.05152107f, -0.17586593f, -0.21314852f, 0.11352896f, -0.00642610f, -0.02370740f, 0.08554579f, -0.07486006f, 0.20951839f, -0.37785956f, -0.05227432f},
  {0.25450918f, 0.24250142f, -0.02172481f, -0.04862726f, -0.14231865f, -0.10504989f, 0.30131197f, 0.22324421f, -0.17388421f, 0.06266315f, 0.05881513f, 0.17174296f, 0.48453605f, -0.39489481f, -0.09707669f, 0.24139194f, -0.08131956f, 0.26632136f, -0.12444419f, 0.07536925f, 0.13604820f, -0.02951989f, -0.07464927f, -0.30199710f, 0.02690116f, 0.00822032f, -0.09066224f, 0.43193409f, -0.06344379f, 0.07515297f, -0.05930513f, 0.04039289f},
  {0.18920852f, 0.46981186f, 0.07434950f, -0.13725501f, -0.08921403f, -0.23594674f, 0.36840954f, 0.05469581f, 0.00882584f, 0.31168661f, -0.24942662f, 0.30958295f, 0.75706315f, -0.26154098f, -0.08644176f, 0.26834020f, 0.24514981f, 0.20633338f, 0.06431875f, 0.04792800f, 0.25569975f, 0.15411404f, -0.12041262f, -0.06557148f, 0.12196928f, 0.28661627f, -0.11428744f, 0.39312246f, 0.27164206f, -0.12835886f, 0.00352713f, 0.00793561f},
  {0.02791843f, 0.39737314f, -0.03737814f, -0.01737708f, -0.22320242f, -0.35527736f, 0.18260680f, 0.16291203f, 0.00761952f, 0.26718059f, -0.33240941f, 0.49400759f, 0.41178042f, -0.35010830f, -0.29295194f, 0.37524417f, 0.19057512f, 0.20530380f, 0.19520824f, -0.14347158f, 0.03626898f, 0.05408344f, -0.12127905f, -0.15977019f, 0.10473706f, 0.13735160f, 0.08068584f, -0.09547318f, 0.36542690f, -0.08718332f, -0.09593174f, 0.05695197f},
  {0.13829841f, 0.38293648f, 0.35118005f, -0.07739982f, -0.11175848f, -0.19692943f, 0.10396348f, 0.20357150f, -0.04793797f, 0.09840516f, -0.18121216f, 0.17023970f, 0.33260661f, -0.52706301f, -0.14176497f, 0.30499655f, -0.21617675f, 0.18913797f, 0.29602998f, 0.05002965f, -0.18136729f, 0.01517391f, 0.06053359f, -0.12189087f, 0.25200397f, 0.01434182f, 0.05542091f, -0.51797098f, 0.30738178f, 0.14586398f, 0.36405483f, 0.01654690f},
  {0.09611768f, 0.07512043f, 0.28077650f, -0.15219744f, -0.00263758f, 0.05550720f, -0.03150394f, 0.12393513f, -0.12258624f, -0.30111530f, -0.09498536f, 0.00744567f, 0.11687596f, -0.50197721f, -0.15963602f, 0.26860318f, -0.34920955f, 0.13265696f, -0.23004842f, 0.23512273f, 0.04356631f, 0.12143645f, 0.05940138f, 0.01553594f, 0.19930394f, -0.02817952f, 0.13860162f, -0.43201506f, 0.19364050f, 0.20015226f, 0.12257543f, -0.02592428f},
  {0.18072365f, -0.27499804f, 0.21339764f, -0.04645664f, 0.06258935f, 0.23253450f, -0.30483136f, 0.11328008f, -0.01469991f, -0.39359754f, 0.17951873f, -0.21733880f, -0.11595393f, 0.20288889f, -0.11295806f, 0.03026843f, -0.28010821f, 0.15571682f, -0.46148413f, -0.10327229f, 0.03732501f, 0.31689420f, 0.12668820f, 0.26400322f, 0.39843017f, -0.20251107f, 0.19573262f, -0.01052582f, 0.16158248f, 0.12423848f, 0.13488685f, -0.02134915f},
  {0.49589923f, -0.51255244f, -0.28164238f, -0.20381621f, 0.01099504f, 0.30882406f, -0.22878030f, 0.28957298f, -0.04398913f, -0.22640854f, 0.30990711f, -0.19911836f, -0.21130496f, 0.61245191f, 0.21550611f, 0.12592849f, -0.58866143f, -0.32281768f, -0.43225637f, -0.54081595f, 0.38977113f, 0.22899994f, 0.16179036f, -0.39955196f, 0.40443930f, 0.20669138f, 0.09092129f, -0.02479311f, 0.27925026f, 0.26793683f, 0.36567578f, -0.00338167f},
  {0.26824060f, -0.32276636f, -0.12534207f, -0.08556436f, 0.02840863f, 0.18394345f, -0.22669862f, -0.09559441f, 0.19169807f, 0.06851918f, 0.04130589f, -0.20340362f, -0.07007054f, 0.16070239f, -0.03963131f, 0.01506452f, -0.40345135f, -0.06560125f, -0.04117168f, -0.02119450f, 0.40252933f, 0.02426993f, 0.08230368f, -0.01125431f, 0.31329682f, 0.02402247f, -0.27936989f, -0.18457563f, 0.38297117f, -0.01597503f, 0.12457468f, -0.14803544f},
  {-0.18269184f, -0.07737245f, -0.09839416f, 0.20321225f, 0.15925157f, 0.18131688f, 0.27083680f, -0.08919635f, -0.02956042f, 0.15483309f, 0.00798700f, 0.32113388f, 0.21413893f, 0.44855139f, -0.11504430f, -0.30167004f, -0.20601039f, 0.12368805f, 0.04811080f, 0.36607239f, -0.28400773f, 0.03875321f, -0.27223459f, -0.15382168f, -0.06990590f, -0.11670376f, 0.17517725f, -0.52574193f, -0.23994945f, 0.19677627f, -0.16698404f, 0.31902319f},
  {-0.58421528f, -0.29243085f, 0.03882855f, 0.09576569f, 0.26582107f, -0.11221162f, 0.24414307f, 0.20818476f, 0.21964672f, 0.09957927f, -0.29346639f, 0.19427192f, 0.34526628f, -0.01495018f, 0.13300999f, -0.51482230f, -0.44066548f, 0.27992749f, 0.12075525f, 0.24898295f, -0.23372623f, -0.14568628f, 0.11363821f, 0.07838035f, -0.22347151f, -0.08318382f, -0.38042921f, -0.04001806f, -0.32801455f, 0.15875396f, -0.30529755f, 0.18781990f},
  {-0.46610048f, -0.47447813f, -0.06256932f, -0.01873908f, 0.07988866f, 0.02555106f, 0.20490006f, 0.25703880f, 0.15763326f, 0.30656058f, -0.33769739f, -0.04591427f, 0.24532488f, 0.06243657f, -0.05591960f, -0.54353160f, -0.44657728f, -0.01421380f, -0.04171161f, 0.31941026f, 0.06561977f, -0.14576280f, 0.52797747f, 0.22147161f, -0.10128121f, 0.13145898f, -0.01197240f, 0.18882766f, -0.50584006f, -0.03150903f, -0.40490067f, 0.26743376f},
  {0.02180289f, -0.09501559f, -0.13844396f, -0.13964193f, 0.28760666f, -0.03736850f, -0.03728884f, 0.05917384f, -0.15696344f, 0.08023553f, -0.28420842f, 0.16562493f, 0.41651168f, 0.37692022f, -0.26568180f, 0.11092293f, -0.58670235f, 0.15108436f, -0.38235074f, 0.28018713f, -0.03471382f, -0.01128026f, 0.25922561f, -0.01109873f, -0.02250196f, 0.08585011f, -0.02103910f, -0.15670291f, -0.68653452f, -0.23579344f, -0.48622048f, 0.14752178f},
  {0.27798760f, -0.20674077f, -0.20557068f, 0.07801201f, -0.03890012f, -0.18310812f, -0.06029271f, -0.05475774f, 0.10970469f, 0.06258526f, -0.03041401f, 0.20736240f, 0.33975905f, 0.40100190f, -0.28512737f, 0.20747904f, -0.48063919f, 0.25047758f, -0.44541365f, 0.08862741f, 0.07869111f, 0.10148299f, -0.04860767f, -0.06851853f, 0.11823986f, 0.01176154f, -0.04059524f, 0.04156280f, -0.17539611f, -0.02343357f, -0.41508108f, 0.17303158f},
  {0.25786436f, -0.09434695f, 0.00696870f, -0.21354467f, -0.20117046f, -0.12075389f, 0.12305216f, -0.06413390f, 0.09427354f, 0.14217904f, 0.40920803f, 0.29554716f, 0.44375956f, 0.01084774f, -0.04717650f, 0.26299754f, -0.17910101f, 0.06330477f, -0.64104205f, 0.25946960f, -0.09108592f, 0.07804102f, 0.08499293f, -0.10105890f, 0.13899086f, 0.20397587f, 0.01542285f, 0.03829803f, 0.11908745f, 0.47294202f, -0.00464140f, -0.04731804f},
  {0.11776741f, 0.10792916f, -0.15001129f, 0.01348895f, -0.08386473f, 0.09819890f, 0.20591198f, -0.04738826f, -0.31365228f, 0.13662657f, 0.07415386f, 0.23403777f, 0.45292872f, -0.54983342f, 0.03413149f, 0.28962594f, 0.35520750f, -0.47326079f, -0.73280787f, 0.39996332f, -0.11638067f, -0.01358478f, 0.15073667f, 0.14243744f, -0.05038428f, 0.06829347f, -0.15909037f, -0.13659267f, 0.09883580f, 0.45868281f, 0.38559881f, 0.04894524f},
  {-0.18812248f, 0.19452903f, 0.07407256f, 0.19667178f, -0.06915759f, 0.21654938f, 0.33020714f, 0.11646737f, -0.08426040f, 0.47408262f, -0.44546264f, 0.31224811f, 0.53931439f, -0.58516854f, 0.17409745f, 0.34070656f, 0.29940608f, -0.02240820f, 0.01752315f, 0.44936880f, -0.04643087f, 0.06183762f, -0.25817910f, 0.07507582f, -0.32694432f, 0.14555922f, 0.15325308f, -0.17012200f, 0.05913115f, -0.25908592f, 0.01147434f, 0.27936053f},
  {-0.31017613f, 0.23298232f, 0.04669134f, -0.04673560f, 0.19437762f, 0.33735496f, 0.21793908f, 0.12109750f, 0.20031998f, 0.14279753f, -0.25045171f, 0.02290329f, 0.40933657f, -0.15873358f, 0.09117124f, 0.18419223f, -0.32601956f, 0.37855622f, 0.53553528f, 0.14875977f, -0.26261082f, 0.41230068f, -0.24099718f, 0.27169085f, 0.01433249f, -0.19333698f, -0.06218721f, 0.26128528f, -0.14349221f, -0.24042380f, -0.08773369f, 0.23674522f},
  {-0.20188586f, 0.12135252f, 0.26176491f, -0.15735321f, 0.02144087f, 0.53905022f, 0.05433471f, 0.07386813f, 0.09161156f, 0.09640942f, -0.13259807f, 0.17810081f, 0.18662183f, -0.21914425f, -0.32366541f, 0.16575201f, -0.42771932f, 0.28958797f, 0.26798719f, 0.14496997f, -0.38712236f, 0.35613558f, 0.23264351f, 0.18520215f, 0.27849177f, -0.06820841f, -0.27870950f, 0.17504881f, -0.26228657f, -0.03101077f, -0.00610582f, 0.09677665f},
  {-0.29111114f, 0.13315684f, 0.25282055f, -0.29163671f, -0.01728694f, 0.41685772f, -0.01191523f, 0.21365848f, 0.01433645f, -0.10974111f, -0.00593722f, 0.18002744f, -0.09616458f, -0.04902528f, -0.24044450f, -0.02041947f, -0.16104306f, 0.05892381f, -0.17738585f, 0.24512018f, -0.23862682f, 0.28335732f, 0.24279092f, 0.06005068f, 0.08131084f, 0.24538577f, -0.16087987f, -0.35124540f, -0.11222734f, -0.00303487f, 0.10140242f, 0.10465853f},
  {-0.24059156f, -0.24648601f, 0.08600827f, -0.47100529f, 0.03886235f, 0.54206181f, -0.25036901f, 0.47598383f, -0.17135280f, -0.40582240f, -0.17509422f, 0.17899160f, -0.13481881f, -0.08609267f, -0.45066088f, 0.05175415f, -0.29237515f, 0.08078269f, -0.48880082f, -0.16331294f, -0.17210391f, 0.30472639f, 0.24389894f, -0.05443436f, 0.08264214f, 0.05089848f, -0.21745279f, -0.32261536f, -0.11070774f, -0.01296824f, 0.07787091f, -0.04256950f},
  {0.39792395f, -0.37025088f, -0.34202430f, -0.31825328f, -0.46425864f, 0.70696795f, -0.24250299f, 0.65258735f, -0.47628298f, -0.24332106f, -0.20328352f, 0.18616086f, -0.33754513f, 0.42961213f, -0.05090256f, 0.42040071f, -0.57232934f, -0.74234223f, -0.76816303f, -0.88825023f, -0.00200527f, 0.71597612f, 0.05377446f, -0.31688449f, 0.65469778f, 0.47681397f, -0.47641167f, -0.31375995f, 0.29042938f, 0.40916431f, 0.76008433f, 0.02270810f},
  {0.07861011f, -0.57297075f, -0.52451783f, -0.43599212f, 0.04628690f, 0.40391618f, -0.21600792f, 0.08500396f, -0.40072432f, -0.00469568f, -0.19074862f, 0.04074442f, -0.30273277f, 0.07008126f, -0.41777280f, 0.35971034f, -0.58995986f, -0.31735101f, -0.42410350f, -0.14509225f, 0.14207409f, 0.36124438f, 0.13223651f, -0.27369529f, 0.21415666f, 0.34969562f, -0.35759291f, -0.09345353f, -0.02154333f, 0.05456591f, 0.45436627f, -0.30072048f},
  {-0.30154759f, -0.38860282f, -0.21727592f, 0.33291990f, 0.33120289f, 0.19508453f, 0.26430187f, -0.15446655f, -0.16409145f, 0.14793099f, -0.19830355f, 0.26133946f, 0.28329089f, 0.22473469f, 0.07296392f, -0.00903440f, -0.08268966f, 0.28475603f, 0.07975322f, 0.04006231f, -0.32005641f, -0.01550684f, -0.18127753f, 0.09932689f, -0.11515457f, -0.31385398f, 0.06777968f, -0.31580040f, -0.05744489f, 0.29030836f, -0.01100009f, 0.21064518f},
  {-0.45491940f, -0.41673464f, -0.09476207f, -0.18295187f, 0.25787348f, 0.16632910f, 0.33562273f, 0.31934386f, -0.25726807f, 0.38251519f, -0.40445167f, 0.25148344f, 0.38638157f, -0.16632673f, -0.02612304f, -0.53234601f, -0.58669788f, 0.29667091f, 0.15411171f, 0.51913565f, -0.32504076f, 0.22472948f, -0.05421979f, 0.06243813f, -0.32575330f, -0.02220408f, -0.43986049f, -0.35594779f, -0.22151476f, 0.07592115f, -0.39009151f, 0.32608595f},
  {-0.14850885f, -0.27365717f, 0.17461899f, -0.08837569f, 0.03119849f, -0.00351569f, 0.17119783f, -0.12772003f, -0.28710812f, 0.34735674f, -0.00295267f, 0.22378924f, 0.22856668f, -0.08767837f, -0.10412447f, 0.34078619f, -0.34100431f, -0.32288140f, -0.30715647f, 0.04890941f, 0.00649267f, -0.02683175f, 0.11182186f, -0.13922767f, -0.15265468f, 0.26301259f, 0.02707868f, -0.13083224f, -0.72377878f, 0.01195304f, -0.28966156f, -0.11966955f},
  {0.30504602f, 0.12345655f, 0.16173886f, 0.08617827f, -0.03938440f, -0.20209856f, 0.01186306f, -0.21621022f, -0.22241467f, 0.30342475f, -0.33017594f, 0.30194849f, 0.07149762f, 0.05131892f, -0.18622960f, 0.28937981f, -0.15476167f, -0.42312983f, -0.68763953f, -0.12237404f, 0.16294311f, 0.04804226f, -0.03410102f, -0.16783711f, 0.06460143f, 0.09736973f, 0.06716941f, -0.06043655f, -0.39739916f, 0.13189253f, -0.51824582f, -0.05934263f},
  {0.32595751f, -0.10246245f, -0.00377903f, -0.15904370f, -0.06540457f, -0.21676196f, 0.06764580f, -0.23725285f, 0.02117712f, 0.12494828f, -0.07958284f, 0.34810740f, -0.06364508f, 0.46324828f, -0.22466640f, 0.47568089f, 0.04124752f, -0.59652013f, -0.75634640f, -0.21664119f, 0.10307777f, 0.06541409f, 0.26267013f, -0.27249524f, 0.32314366f, -0.14512995f, 0.29006243f, 0.00609814f, 0.01924072f, 0.28288266f, -0.31860664f, -0.40658921f},
  {0.11030984f, -0.00462479f, -0.34910417f, 0.10230479f, -0.02554782f, 0.07610510f, 0.14649336f, -0.14987309f, -0.02989936f, 0.01473443f, 0.32599688f, 0.44032738f, -0.12723695f, -0.05272031f, -0.22769846f, 0.28403583f, 0.21243048f, -0.93876803f, -0.34949255f, -0.01665261f, 0.16137333f, 0.03135378f, 0.12367107f, -0.31228223f, 0.32837862f, -0.15795189f, -0.03820751f, 0.04161565f, 0.25621319f, 0.84111941f, 0.27959001f, -0.07272784f},
  {0.10854714f, -0.09088109f, -0.37993971f, 0.30350900f, 0.52872527f, 0.42729357f, 0.11663930f, 0.10296132f, -0.34677467f, -0.08772987f, -0.05276452f, 0.10826271f, -0.11029981f, -0.24718282f, 0.06685841f, 0.00977080f, 0.20312344f, -1.23932254f, -0.46032250f, 0.20587768f, -0.06131613f, 0.49357668f, -0.21047701f, -0.03412783f, 0.06157256f, -0.14436373f, -0.07246865f, -0.19348854f, 0.14163893f, 0.20990096f, 0.64209902f, 0.04660556f},
  {0.11785685f, -0.21036200f, -0.38522866f, 0.12849696f, 0.45426971f, 0.57876825f, 0.13534823f, -0.19128844f, 0.26182070f, 0.16702795f, -0.39446762f, 0.12605752f, -0.06102790f, -0.28928927f, 0.04028551f, 0.30973253f, 0.09824855f, -0.15008940f, 0.02668565f, 0.57699323f, 0.10674625f, 0.28216559f, -0.45876363f, 0.14757125f, -0.37966210f, -0.09747031f, 0.18268017f, 0.02072828f, -0.38474345f, -0.62098026f, 0.33870849f, 0.09653505f},
  {-0.50033200f, -0.06093381f, -0.38251254f, 0.35098732f, 0.30160841f, 0.38982242f, 0.26560453f, 0.01705773f, 0.26859316f, 0.04781513f, -0.19776721f, 0.03185911f, -0.06197406f, 0.38354263f, 0.01032555f, 0.18906394f, -0.31735560f, 0.39420399f, 0.47118223f, 0.22024377f, -0.14048550f, 0.08806890f, 0.05517088f, 0.03681608f, 0.06388929f, -0.13813087f, -0.09129717f, 0.37494040f, -0.33425429f, -0.18043421f, -0.23400883f, 0.00342220f},
  {-0.41523772f, 0.14032605f, 0.13890268f, -0.06579722f, 0.06893968f, 0.08216701f, 0.38183367f, 0.15322404f, 0.16490708f, 0.48438469f, -0.10180641f, 0.17828973f, -0.00266558f, 0.14746182f, -0.17646623f, -0.01327570f, -0.13643909f, 0.06076055f, 0.25587702f, -0.06892702f, -0.15429714f, 0.14258701f, 0.15326330f, 0.08367065f, -0.03533217f, -0.02838017f, -0.32910246f, 0.46059299f, -0.46684882f, -0.06453544f, -0.28770104f, 0.14078179f},
  {-0.41798869f, 0.26261541f, 0.36227396f, -0.03750069f, 0.26329631f, 0.19734815f, 0.39120984f, 0.28576466f, -0.00996038f, 0.18488069f, 0.03734090f, 0.26770625f, 0.16852991f, -0.01342641f, -0.12004980f, -0.02646124f, 0.03619171f, 0.22658822f, -0.22232987f, -0.26954788f, -0.30731294f, 0.03245028f, 0.16220856f, -0.04881580f, 0.01039023f, 0.05722732f, -0.20405914f, -0.18110621f, -0.84196365f, -0.21821527f, -0.17996703f, 0.11582708f},
  {-0.30576319f, 0.14279105f, 0.25808707f, -0.40121692f, 0.12806849f, 0.18778095f, 0.02817054f, 0.18529931f, 0.14698724f, -0.32143268f, 0.02509644f, 0.68613726f, -0.20172310f, 0.02844175f, 0.02561342f, 0.14121948f, -0.51634032f, 0.00114961f, -0.67559576f, -0.43837166f, -0.32141501f, 0.20287244f, -0.18677044f, -0.21383151f, -0.04799363f, 0.19905326f, 0.25072381f, -0.67258680f, -0.90761614f, -0.14268455f, 0.38186496f, 0.07449608f},
  {0.41707826f, -0.40823010f, -0.32719913f, -0.84032476f, -0.44976330f, 0.82998151f, -0.74976140f, 0.40756574f, -0.30327907f, -0.46859175f, -0.39511386f, 0.35547522f, -0.26496896f, 0.14301065f, 0.09466942f, 0.65327507f, -0.92402256f, -0.51883936f, -0.58163828f, -0.51421839f, -0.08631752f, 0.81750482f, -0.27628326f, -0.19970475f, 0.12203707f, 0.49691945f, -0.11218278f, -0.38360578f, -0.16137679f, 0.07574835f, 0.83993614f, 0.08388849f},
  {0.54448563f, -0.77864081f, -0.79335010f, -0.54977393f, -0.52887774f, 0.64787304f, -0.38607317f, 0.28527001f, -0.14013237f, -0.27378303f, -0.47793537f, 0.04548186f, 0.13859695f, -0.07461826f, -0.11494165f, 0.69944173f, -0.43571824f, -0.11819399f, -0.11164229f, 0.11067744f, 0.19482180f, 0.36813384f, -0.04778117f, -0.08096101f, 0.27416566f, 0.65226597f, -0.50476700f, -0.27735403f, -0.00200278f, 0.35791183f, 0.58896303f, -0.00606657f},
  {-0.30025300f, -0.24238612f, 0.14526586f, 0.06123135f, 0.31455550f, 0.26088229f, 0.19232324f, -0.07952726f, -0.18851165f, 0.12800820f, 0.08164538f, 0.35774767f, 0.17510070f, 0.16920087f, -0.28144282f, -0.05026402f, -0.12947270f, 0.02367693f, -0.15264688f, 0.22687489f, -0.05025132f, -0.01551673f, -0.15267260f, -0.04159789f, -0.04119650f, -0.17064545f, -0.01222882f, -0.47192326f, -0.10200395f, 0.18924330f, -0.15695971f, 0.10582265f},
  {-0.31262192f, -0.43906501f, 0.06329919f, 0.02138792f, 0.38285935f, 0.41047394f, 0.25267962f, 0.09371788f, -0.43062770f, 0.19223769f, -0.18853554f, 0.52300668f, 0.04527502f, -0.04212999f, -0.14235163f, -0.09325216f, -0.34867489f, -0.47193274f, -0.07034744f, 0.06355080f, -0.27761057f, -0.19180152f, -0.33271083f, -0.17879762f, -0.19503404f, -0.08712345f, 0.14114515f, -0.40376025f, -0.15477684f, 0.05348831f, -0.07387991f, 0.25242928f},
  {-0.08032863f, -0.10221571f, -0.02518345f, 0.05690840f, 0.12468988f, 0.14412573f, 0.16303115f, -0.18910868f, -0.46189085f, 0.05572144f, -0.52412409f, 0.32587072f, -0.22988245f, -0.20591490f, -0.26275152f, 0.54826218f, -0.20613188f, -0.95398891f, -0.53797925f, -0.39343250f, 0.30781865f, -0.24217267f, -0.00910496f, -0.37221727f, -0.09400527f, -0.18673521f, -0.04232557f, -0.13666357f, -0.40830123f, 0.17822981f, -0.12239275f, -0.13583159f},
  {0.09926683f, 0.32390755f, 0.23244438f, 0.11553254f, -0.03469056f, 0.26632878f, 0.24489135f, -0.35071307f, -0.06585202f, -0.31931752f, -0.46189284f, 0.14249325f, -0.31851202f, 0.28473926f, -0.10968721f, 0.34033731f, -0.09905308f, -1.12898779f, -0.28658652f, -0.57256418f, 0.20954938f, 0.05459560f, 0.00708856f, -0.39696395f, 0.17131254f, -0.24384300f, 0.19381964f, 0.09540512f, -0.26394218f, 0.41167274f, -0.51686329f, -0.19864908f},
  {0.18101226f, 0.21309452f, -0.03723152f, 0.09334753f, 0.21920653f, 0.24198760f, 0.27868631f, -0.09239022f, 0.01456250f, -0.19276641f, -0.20332617f, 0.11180086f, -0.29413998f, 0.25769943f, -0.01322560f, 0.02397787f, 0.25596341f, -0.77736282f, 0.14815088f, -0.30309758f, 0.27023396f, 0.10335030f, 0.16355011f, -0.29623649f, 0.19951677f, -0.24219607f, 0.04480559f, 0.06874420f, 0.08790179f, 0.38685349f, -0.33574429f, -0.32644141f},
  {0.00424152f, 0.19870362f, -0.20411274f, 0.39343682f, 0.28428772f, 0.17165916f, 0.20020285f, 0.04492644f, 0.25524023f, -0.41228941f, 0.13211210f, -0.18917146f, -0.48080122f, 0.32136890f, 0.12828748f, -0.15738145f, 0.01219509f, -0.63375837f, 0.15792340f, -0.34146991f, 0.13019203f, 0.23718905f, 0.23244448f, -0.14293662f, 0.51215321f, -0.05032390f, -0.36330631f, -0.14651406f, 0.19327736f, 0.44378886f, 0.04073807f, 0.16208915f},
  {0.31453633f, 0.05260801f, -0.30038273f, 0.03963279f, 0.28758273f, 0.12522875f, -0.23812090f, 0.37261385f, 0.40226918f, -0.38250247f, 0.26428401f, -0.23308739f, -0.63526922f, -0.20725462f, 0.19873270f, -0.12146896f, 0.07987202f, -0.21793419f, -0.09560688f, -0.39776269f, 0.23295073f, 0.49015790f, -0.03844254f, 0.10911988f, -0.05486511f, 0.43959314f, -0.05459480f, 0.03471308f, 0.21764328f, -0.59882909f, 0.46639776f, -0.09585492f},
  {0.15709735f, 0.04543841f, -0.55619013f, 0.36564764f, 0.49469435f, 0.29206479f, 0.16830219f, -0.13047378f, 0.71892649f, 0.37726477f, 0.05727005f, -0.09437203f, -0.30893317f, -0.23942222f, -0.39168227f, 0.29216865f, 0.16768962f, 0.20271233f, 0.04191040f, -0.02609283f, 0.52296400f, 0.19897614f, 0.07370087f, -0.18704310f, -0.27048302f, 0.42994094f, 0.39871779f, 0.11344840f, 0.03497377f, -0.44448954f, 0.32513869f, -0.36541206f},
  {-0.23513736f, 0.03919477f, -0.45949197f, 0.45720026f, 0.44336841f, 0.00091837f, 0.41433397f, -0.12184715f, 0.56408614f, 0.42521730f, -0.07470997f, -0.02870436f, -0.08745062f, 0.12674461f, -0.26231122f, 0.06861722f, 0.09619632f, -0.06190562f, 0.08352999f, -0.05842483f, 0.37521601f, -0.19605668f, 0.03635556f, -0.36201051f, 0.02520732f, 0.15505771f, -0.14292808f, 0.06258290f, 0.18417948f, -0.08844611f, 0.01491807f, -0.17133282f},
  {-0.17859901f, 0.10821740f, 0.01781635f, 0.31563988f, 0.12982088f, -0.30916497f, 0.10226580f, -0.17478332f, 0.11883900f, 0.27705142f, -0.25606123f, 0.17030792f, 0.01290450f, 0.05314634f, -0.00206561f, 0.16527043f, 0.16250786f, -0.03232024f, 0.05114856f, -0.24277383f, 0.13594848f, 0.12521951f, 0.28140882f, -0.28562516f, 0.02762915f, 0.03649406f, -0.20599508f, 0.18055858f, 0.01104273f, -0.13166803f, -0.31746352f, 0.05835045f},
  {-0.29864350f, 0.30277660f, 0.57773221f, 0.17319123f, 0.31877458f, -0.55278575f, 0.23323362f, -0.24781081f, 0.16290499f, 0.06104495f, 0.20657696f, 0.46465757f, 0.09072601f, -0.06845887f, 0.00724377f, 0.22779258f, 0.04553800f, -0.10197950f, -0.37131160f, -0.47985482f, 0.13405582f, -0.11032457f, 0.27744141f, -0.05630930f, 0.22367142f, 0.09015401f, -0.03695072f, -0.41176960f, -0.30190894f, -0.01843533f, -0.15460479f, -0.20614311f},
  {-0.59678841f, 0.54759175f, 0.80576056f, 0.02435971f, 0.68935269f, -0.55636954f, 0.13095926f, -0.25215340f, -0.04656577f, -0.09098876f, 0.43719056f, 0.59156281f, -0.38763759f, 0.18530956f, 0.16941868f, -0.23011824f, -0.13134933f, -0.11422504f, -0.29112974f, -0.56665337f, -0.03120979f, 0.03995222f, -0.19215518f, -0.28202406f, 0.16528350f, -0.21332534f, 0.35409731f, -0.78483427f, -0.56176353f, 0.19566037f, -0.24202560f, -0.29685572f},
  {-0.32203329f, 0.00151772f, 0.64113057f, -0.34579334f, 0.09081478f, -0.46062258f, -0.32456091f, 0.25746942f, -0.17318250f, -0.13323474f, 0.66424853f, 0.42914030f, -0.24034017f, -0.04398669f, 0.28017396f, -0.11933551f, -0.52715564f, -0.22428472f, 0.07074451f, -0.18309641f, -0.35464242f, 0.28199905f, 0.04166477f, 0.30218744f, -0.07372771f, 0.19800818f, 0.74544179f, -0.39222401f, -0.75732702f, 0.21740894f, -0.31749982f, -0.05265297f},
  {0.06269592f, -0.80549133f, -0.22949995f, -0.59547794f, -0.31085816f, 0.11985820f, -0.53579354f, 0.20541684f, -0.07422441f, -0.13267051f, 0.25355542f, 0.32471737f, 0.05091589f, -0.28522453f, 0.03213083f, 0.65993798f, -0.62132472f, 0.22777584f, 0.36248529f, 0.39921269f, -0.49393821f, -0.07871868f, 0.51621932f, 0.36191326f, 0.04912896f, 0.52643085f, -0.33144936f, 0.17014101f, -0.41402751f, 0.03666575f, 0.01745382f, -0.19996801f},
  {-0.01123495f, -0.25053349f, -0.19637682f, -0.04949700f, 0.27592957f, 0.30133867f, 0.15992099f, 0.01417048f, 0.17608160f, -0.05766422f, -0.28330812f, -0.18901747f, 0.08646929f, 0.24222329f, -0.14433846f, -0.24982975f, -0.17328709f, 0.00881523f, -0.11740880f, 0.09149702f, 0.01952576f, 0.25464284f, -0.02468483f, -0.24101390f, -0.10846692f, -0.19909367f, -0.07376446f, -0.27920404f, 0.01636820f, 0.33585018f, 0.13180554f, 0.08827994f},
  {-0.38807470f, -0.14534016f, -0.13189702f, 0.29225448f, 0.21944492f, 0.18992774f, 0.18593772f, -0.10471902f, -0.26262048f, 0.11768094f, 0.21961427f, 0.05112710f, 0.12761861f, -0.08838194f, 0.05609948f, 0.07293681f, -0.18988313f, -0.24536790f, 0.18593036f, -0.02224314f, 0.12538934f, -0.17514433f, 0.24903798f, -0.04220361f, -0.11980644f, -0.12941393f, -0.26614267f, -0.19843517f, 0.00308220f, 0.16638164f, 0.13078798f, -0.17345847f},
  {-0.48410243f, 0.12966214f, 0.22509167f, 0.19522122f, -0.08324811f, 0.19840021f, 0.24023932f, -0.30509052f, -0.33777985f, -0.57596529f, -0.37430912f, -0.09639064f, -0.46533343f, 0.11195793f, -0.03157536f, -0.02675871f, -0.34028330f, 0.00003743f, 0.38873342f, -0.64813244f, 0.05991433f, 0.06467137f, 0.18091451f, -0.08031285f, 0.05834221f, -0.18376781f, -0.13537908f, -0.11783875f, -0.34587008f, 0.32103425f, -0.39372376f, 0.16239214f},
  {-0.35578138f, 0.39161220f, 0.63339698f, 0.11701310f, -0.15774184f, 0.24872252f, 0.08766825f, -0.36171091f, -0.49911195f, -0.34032574f, -0.14297910f, -0.06263621f, -0.30868977f, 0.24930282f, 0.08724861f, -0.06754794f, 0.14687337f, 0.06459472f, 0.49620548f, -0.55215144f, 0.18912579f, 0.00675953f, 0.04476799f, 0.11959619f, 0.23052049f, -0.38195005f, -0.09433911f, -0.01154349f, -0.03139521f, 0.36961627f, -0.40062934f, 0.06319516f},
  {0.07007426f, 0.17640272f, 0.50658876f, 0.28716180f, 0.08090781f, 0.25539654f, 0.08187032f, -0.06473798f, -0.02766860f, -0.32845265f, 0.05807005f, -0.28535709f, -0.29753953f, 0.15165280f, 0.13961500f, 0.14090227f, 0.22469239f, 0.13749799f, 0.45855480f, -0.62371540f, 0.22819766f, 0.16472563f, 0.01804287f, 0.11751619f, 0.29907066f, -0.23316610f, -0.27090496f, -0.18406108f, 0.12090887f, 0.36569038f, -0.39564148f, -0.06532220f},
  {0.14687686f, 0.17188247f, 0.10905554f, 0.20090055f, -0.04350486f, 0.07119969f, 0.12037368f, 0.09363756f, 0.57542759f, -0.32662877f, 0.31590080f, 0.10853378f, -0.21349552f, 0.38719314f, 0.25682172f, -0.08049203f, -0.00543746f, 0.18652499f, 0.10932768f, -0.74022293f, -0.12611191f, 0.21933718f, 0.06027492f, 0.26390961f, 0.38767108f, 0.18984863f, -0.05367356f, -0.31121555f, 0.26451331f, -0.38366702f, -0.08745691f, 0.25815943f},
  {0.15266123f, -0.09477527f, -0.09277561f, -0.18965077f, -0.03214838f, -0.18913960f, -0.02016049f, 0.23006833f, 0.66681767f, 0.15094443f, 0.38002273f, -0.08189502f, -0.28035808f, -0.02694085f, 0.05890785f, 0.14485802f, 0.14295952f, 0.36414352f, -0.07633154f, -0.24580891f, 0.30838463f, 0.24440242f, 0.26933560f, 0.40886047f, 0.04264390f, 0.64169359f, 0.49909404f, -0.16337575f, 0.23194510f, -0.58638883f, 0.22226298f, -0.18304436f},
  {0.05619229f, -0.21477717f, -0.11370580f, 0.03939812f, 0.39750066f, 0.09280716f, 0.00596774f, -0.14056900f, 0.59538496f, 0.47373134f, 0.29931399f, -0.17157485f, -0.33083957f, -0.15929487f, 0.03138022f, 0.04841480f, 0.27798826f, 0.21099342f, -0.00130840f, 0.34524590f, 0.42312661f, -0.29995912f, 0.44881091f, -0.03477311f, -0.02471636f, 0.64771742f, 0.51716399f, -0.15061390f, 0.01802904f, -0.22746114f, 0.30563676f, -0.10955416f},
  {-0.21239582f, 0.01573650f, -0.19222884f, 0.51820970f, 0.10002596f, 0.00316610f, 0.15369149f, -0.23483369f, 0.23856820f, 0.13698800f, -0.02732655f, -0.02465775f, 0.07725928f, 0.17279357f, -0.02646253f, -0.08038949f, 0.10725953f, 0.04538332f, 0.13594079f, -0.02805022f, 0.19280669f, -0.30861908f, 0.53459322f, -0.19830318f, 0.28417236f, 0.04270723f, -0.30151471f, -0.07911317f, 0.16903722f, -0.39286843f, -0.14650288f, -0.27428547f},
  {-0.04965097f, -0.01810681f, 0.14779270f, 0.26512930f, 0.24882427f, 0.01529238f, 0.51353735f, 0.00210098f, -0.11511732f, -0.24314167f, -0.01810864f, 0.06066157f, 0.11572778f, 0.28767028f, -0.18356368f, -0.08803007f, -0.23098205f, 0.02930618f, 0.02442367f, 0.00859962f, -0.04457263f, -0.06597942f, 0.17973667f, -0.13430622f, 0.10097919f, -0.05149574f, -0.35432771f, -0.09377833f, 0.41213053f, -0.30703175f, -0.35833162f, 0.23792158f},
  {-0.13646613f, 0.03702471f, 0.26200762f, 0.26587844f, 0.08940935f, -0.17119280f, 0.28210169f, 0.00288338f, -0.34916833f, -0.62609762f, -0.00683740f, -0.01150620f, 0.08519170f, 0.14366874f, 0.03893008f, -0.08056544f, -0.01775336f, 0.15443781f, 0.05367542f, 0.01120786f, 0.09612839f, -0.10550697f, -0.21395503f, 0.03716623f, 0.01397865f, -0.22856069f, -0.25630209f, -0.37464303f, 0.13924707f, 0.04341633f, -0.36089674f, 0.13899565f},
  {-0.05390584f, 0.14116897f, 0.02083604f, 0.10750674f, 0.10502079f, -0.27678970f, 0.20577596f, 0.03161744f, -0.24379773f, -0.40808934f, 0.10064454f, 0.12047656f, -0.05811776f, 0.17609908f, 0.25672320f, -0.30519739f, -0.35689595f, 0.07454603f, 0.06510975f, 0.00670052f, -0.14688066f, 0.14891616f, -0.02331124f, -0.13028821f, -0.04030421f, -0.11527564f, 0.22919472f, -0.65405798f, -0.17066988f, 0.38413233f, -0.65612787f, 0.34833542f},
  {-0.22876951f, -0.07813210f, 0.19254728f, -0.48450410f, -0.43321225f, -0.34775546f, -0.34271148f, 0.38236961f, -0.36274278f, -0.35240129f, 0.34981903f, 0.13699567f, 0.03872139f, 0.17561375f, 0.44422466f, -0.02899932f, -0.09617587f, -0.00830261f, 0.12919742f, 0.38402486f, -0.33619973f, 0.29017061f, -0.10092233f, 0.41516376f, -0.19313072f, 0.05972515f, 0.49928880f, -0.18123074f, -0.64030957f, 0.31492025f, -0.54907346f, 0.17509888f},
  {-0.41061306f, -0.51308960f, 0.42998183f, -0.46111062f, -0.43525416f, -0.47566187f, -0.43379414f, 0.14375563f, -0.18221901f, 0.18153679f, 0.45030284f, 0.26804757f, 0.29177624f, -0.26852193f, 0.26564208f, 0.67592168f, -0.51642203f, 0.30915415f, 0.16741100f, 0.62610507f, -0.31063262f, -0.60517609f, 0.40267015f, 0.58199728f, 0.04707520f, 0.47852778f, -0.42251369f, 0.29444006f, -0.39719725f, -0.45987764f, -0.36591148f, 0.03924075f},
  {0.23246086f, -0.10747495f, -0.11103295f, -0.06098159f, 0.23623779f, -0.14515890f, 0.10381255f, 0.08303977f, 0.13680366f, -0.18849216f, -0.03376624f, -0.25787431f, -0.05565758f, 0.10307774f, -0.00407836f, -0.11165147f, 0.09938542f, 0.26051614f, 0.17888442f, 0.20554259f, 0.33530137f, 0.13144077f, 0.08209197f, 0.04671653f, -0.13078114f, 0.10975844f, -0.12976705f, -0.13238744f, 0.07504999f, 0.05243391f, -0.32816243f, 0.21788169f},
  {0.12017504f, -0.24631308f, -0.32489890f, -0.34101328f, -0.11475521f, -0.27948907f, -0.31412116f, 0.36683449f, 0.03424654f, -0.00593143f, 0.08490816f, -0.45648974f, -0.09940585f, -0.13257629f, 0.28248310f, -0.11602327f, -0.35101223f, 0.37566239f, 0.35421413f, 0.02267095f, 0.03896851f, 0.25074178f, 0.45212287f, 0.25024977f, -0.38141122f, 0.61082196f, -0.21075669f, -0.06244985f, -0.07070704f, 0.05899386f, 0.07186098f, 0.00905147f},
  {-0.50443220f, 0.06737085f, -0.13777824f, -0.28158355f, -0.50399971f, -0.00286075f, -0.10206088f, 0.09683699f, -0.48565441f, -0.52352589f, -0.02772685f, -0.13273539f, -0.16469382f, -0.12859192f, 0.16210034f, -0.10062045f, -0.52401572f, 0.51597244f, 0.37489623f, -0.21535046f, -0.03781499f, 0.09854261f, 0.11381503f, 0.30201215f, -0.15948558f, 0.03295217f, -0.18652317f, -0.28814423f, -0.13048583f, 0.10760990f, -0.01698875f, 0.65862793f},
  {-0.47516903f, 0.21542747f, 0.37215412f, 0.21012087f, -0.18506610f, -0.04863387f, 0.07965360f, -0.14035778f, -0.96532577f, -0.58923751f, 0.08953085f, 0.16537091f, -0.31029505f, 0.14218231f, 0.15338238f, 0.00460678f, -0.15024470f, 0.30265707f, 0.25507009f, -0.40677786f, 0.07568841f, -0.03722979f, 0.19734609f, 0.26436296f, 0.17102161f, 0.01883011f, -0.05968852f, -0.29183623f, -0.40241167f, 0.02155834f, 0.06381268f, 0.21519634f},
  {-0.49428803f, 0.51980180f, 0.60185802f, 0.27267540f, 0.11679742f, 0.04100552f, 0.34941745f, -0.09550271f, -1.11164033f, -0.02011699f, 0.48437253f, 0.30375504f, -0.26788938f, 0.13592720f, 0.05726107f, -0.05338853f, 0.42826891f, 0.11034509f, 0.00312363f, -0.35701606f, 0.12522995f, 0.05776706f, 0.14319563f, 0.26811954f, 0.23329422f, -0.30818203f, -0.05828478f, -0.19790088f, -0.04312984f, 0.00908050f, -0.05029881f, -0.12781824f},
  {0.01691588f, 0.71784371f, 0.49793121f, 0.16910367f, 0.00125726f, -0.24430212f, -0.04197577f, -0.09078858f, -0.38177815f, 0.12618643f, 0.37198615f, 0.02417166f, -0.11965796f, 0.06758430f, 0.04939444f, 0.05363299f, 0.48152545f, 0.05086945f, -0.12201249f, -0.52321273f, -0.05747660f, 0.03266722f, 0.17220221f, -0.00983799f, -0.00831501f, 0.13728856f, 0.60268217f, 0.07634088f, 0.26468363f, -0.39521134f, -0.11717612f, -0.15273485f},
  {-0.14006114f, -0.18455885f, 0.11245472f, 0.03550985f, 0.04092393f, 0.09200908f, -0.16522478f, 0.01942098f, 0.10337760f, 0.23059875f, 0.37510708f, -0.01002567f, -0.24241148f, 0.07156011f, -0.00692367f, 0.25908741f, 0.00136708f, 0.39187604f, 0.14337437f, -0.05115729f, 0.28597167f, -0.17085861f, 0.44844177f, 0.12700233f, 0.13199563f, 0.59187651f, 0.59826672f, -0.14909551f, -0.10932237f, -0.67961860f, 0.11616866f, -0.19298038f},
  {-0.10319608f, -0.22059783f, -0.05440407f, 0.20613077f, 0.19719480f, 0.32098943f, -0.05770193f, -0.43625459f, 0.10741075f, 0.20011437f, 0.26545334f, -0.16542323f, -0.27215379f, 0.36781010f, -0.11173083f, 0.08359657f, 0.28796077f, -0.08830408f, -0.03668524f, 0.16949089f, 0.25280544f, -0.37109554f, 0.63201797f, 0.22463301f, 0.11048120f, 0.10308547f, 0.14480132f, -0.27674046f, -0.03681288f, -0.18570125f, 0.00747970f, -0.13540064f},
  {-0.31621966f, 0.17226864f, -0.06065787f, 0.21327449f, 0.05011455f, 0.10018798f, 0.30847785f, -0.12085056f, 0.04867391f, -0.14240950f, -0.04160751f, 0.09572405f, 0.00039457f, 0.50177795f, 0.07847763f, -0.02201592f, -0.10185786f, -0.09799427f, -0.12324685f, 0.12312409f, 0.11065348f, -0.11353739f, 0.53269982f, 0.07635485f, 0.43091547f, 0.18792270f, -0.30223674f, 0.06306675f, 0.30907756f, -0.27848661f, -0.04118173f, 0.30151531f},
  {-0.04536292f, 0.08345173f, 0.24661721f, 0.14018805f, 0.01682880f, -0.17059131f, 0.39214694f, -0.01850590f, -0.29378784f, -0.41324997f, 0.06655110f, -0.08254898f, 0.04778820f, 0.13776098f, 0.18628046f, -0.21583664f, -0.28523406f, 0.05183290f, -0.10159286f, 0.24455281f, 0.25197679f, 0.04640339f, 0.08361897f, -0.06513204f, 0.03176978f, 0.01950387f, -0.15037805f, -0.08635855f, 0.32536939f, 0.03332503f, -0.03019714f, 0.44665954f},
  {0.08140400f, 0.08607925f, 0.05308718f, 0.17745149f, -0.16104500f, -0.21048909f, 0.11725938f, -0.03522573f, -0.23171397f, -0.33281636f, 0.04697545f, -0.01344467f, 0.14092961f, 0.18141988f, 0.06245432f, -0.04425669f, -0.21107094f, 0.01861141f, -0.24947891f, 0.29493207f, 0.10054626f, 0.08696093f, -0.01276081f, 0.12076057f, -0.03947702f, -0.02257221f, -0.08109044f, -0.38241836f, 0.13135639f, 0.19903737f, -0.48343921f, 0.19831334f},
  {-0.03229305f, 0.04696124f, 0.12584706f, -0.25963816f, -0.09116165f, -0.50795084f, 0.04620051f, 0.20840321f, -0.19919771f, -0.26967806f, 0.02788900f, -0.14164269f, 0.09523430f, 0.01456051f, 0.15715416f, -0.28997725f, -0.20303723f, -0.03619917f, -0.09010000f, 0.31126809f, -0.03668096f, 0.20416047f, 0.08103717f, 0.14209357f, -0.21238698f, 0.04443852f, -0.11177213f, -0.08741808f, -0.20416704f, 0.07461174f, -0.65477139f, 0.32431465f},
  {0.16425277f, -0.47324279f, 0.14226061f, -0.54002297f, -0.35512406f, -0.62017667f, -0.55095404f, 0.19110236f, -0.50670397f, -0.15292963f, 0.47437143f, 0.10642648f, 0.09995917f, 0.11182892f, 0.55171919f, 0.06302827f, -0.11445417f, 0.31565264f, -0.02539975f, 0.47044176f, -0.06326223f, -0.04687795f, -0.07057896f, 0.38603491f, -0.13752753f, 0.47070307f, 0.18124565f, 0.25882527f, -0.63479298f, 0.14004810f, -0.40971965f, 0.29459602f},
  {-0.69888765f, -0.49376962f, 0.51901573f, -0.34878099f, -0.54606086f, -0.36485511f, -0.40588796f, -0.00668411f, 0.06366110f, 0.27788198f, 0.60921174f, 0.31168637f, 0.20925206f, -0.44129670f, 0.28779271f, 0.55491006f, -0.37038267f, 0.37233377f, 0.28780630f, 0.65791982f, -0.35497048f, -0.60174823f, 0.30714914f, 0.49537346f, -0.25195664f, 0.21011564f, -0.16409193f, 0.07150511f, -0.59918195f, -0.59255284f, -0.35844839f, 0.34237775f},
  {0.00218629f, -0.03626894f, 0.10014121f, -0.17909573f, 0.09644280f, -0.08050180f, 0.32833773f, 0.07696109f, -0.05548162f, -0.15064469f, -0.18264937f, 0.09500843f, 0.24385691f, -0.07537678f, 0.08014608f, -0.20130652f, -0.19782393f, 0.20735277f, 0.06558553f, -0.04340303f, -0.10677341f, 0.22161597f, -0.24328591f, 0.12777327f, -0.03566051f, -0.20080173f, 0.19286048f, -0.14629948f, -0.21253100f, -0.06902021f, -0.03586762f, -0.02534335f},
  {0.49428937f, -0.36863247f, -0.31991655f, -0.12369313f, -0.06969436f, -0.28618762f, -0.11142548f, 0.26104629f, -0.00562679f, 0.09562533f, -0.02945258f, -0.45731309f, 0.03011931f, -0.03798685f, 0.03543093f, -0.15875362f, -0.30021217f, 0.29321221f, 0.33240822f, 0.26096314f, 0.17732023f, 0.17485070f, 0.37164479f, 0.21406166f, -0.08707827f, 0.15433697f, -0.17489415f, -0.24498373f, 0.21110295f, 0.09465147f, -0.17272462f, 0.40947935f},
  {0.13916866f, -0.17880963f, -0.13078447f, -0.44634438f, -0.44111890f, -0.06932672f, 0.02272405f, 0.21218511f, 0.01613165f, -0.58195704f, -0.27772242f, -0.10670008f, -0.07387388f, -0.17744601f, 0.16083434f, -0.12864067f, -0.54510736f, 0.29974574f, 0.03119236f, 0.11565777f, 0.13900593f, 0.09820561f, 0.26713085f, 0.18553582f, -0.05773209f, 0.19485410f, -0.51653588f, -0.46193558f, 0.08679432f, -0.14488865f, -0.17421317f, 0.48399934f},
  {0.00658723f, 0.18585585f, 0.27461329f, -0.35700333f, -0.43653685f, -0.10738873f, -0.12445515f, 0.09217199f, -0.35936889f, -0.40108886f, 0.07653441f, 0.04902583f, -0.62160778f, -0.10589018f, 0.20072238f, 0.04194185f, -0.33336100f, -0.08138379f, -0.05767564f, 0.06087196f, -0.09361126f, 0.14309299f, 0.07908951f, -0.00189932f, -0.03026727f, 0.32827669f, -0.42150337f, -0.37807688f, -0.18380021f, -0.23363110f, 0.08941538f, 0.27367955f},
  {-0.10069015f, 0.28769547f, 0.38477302f, -0.11054489f, -0.02581311f, -0.15385593f, -0.07258824f, 0.06672028f, -0.79445606f, 0.00267072f, 0.17429876f, 0.21630226f, -0.52688146f, -0.16256647f, 0.13895011f, -0.07558233f, -0.07046036f, 0.11872922f, -0.03514663f, 0.04070216f, -0.21094602f, 0.09442340f, -0.06572039f, 0.15476549f, -0.06910311f, 0.22650018f, 0.25795379f, 0.04995916f, -0.37260556f, -0.12126839f, 0.18318798f, -0.06228668f},
  {-0.21854505f, 0.46934947f, 0.50400025f, -0.08473454f, -0.02022741f, -0.09256721f, -0.21625505f, -0.07731280f, -0.90759838f, 0.35839665f, 0.11124992f, 0.24984199f, -0.49717972f, 0.10206560f, 0.43656218f, 0.00259833f, 0.13950950f, 0.02296047f, -0.18008375f, -0.22846833f, -0.17916775f, 0.08086812f, -0.21552339f, 0.01225957f, 0.04539448f, 0.24525535f, 0.40383959f, 0.32361785f, -0.16868889f, -0.33297920f, 0.19599721f, 0.28502014f},
  {-0.35794228f, -0.27641672f, -0.01074607f, 0.18474051f, 0.08241393f, 0.34851420f, -0.24453318f, -0.27764896f, -0.51727092f, 0.19318403f, 0.28669408f, -0.03855758f, -0.25934362f, 0.62287754f, 0.36342022f, 0.05331784f, 0.15216495f, 0.21611139f, -0.02265171f, 0.15006770f, -0.05535260f, -0.26846406f, 0.04821106f, -0.00643364f, 0.09468265f, 0.21438019f, 0.49062815f, 0.00231145f, -0.18777372f, -0.55014443f, 0.19505304f, 0.07484102f},
  {-0.26099789f, -0.05949322f, -0.36924767f, 0.08468480f, 0.03029348f, 0.16092946f, -0.07344621f, -0.23964319f, -0.11975377f, 0.13891116f, -0.03704993f, 0.03163571f, -0.02108572f, 0.35729903f, 0.49741182f, 0.09279057f, 0.23538017f, 0.02697575f, -0.19112998f, 0.28936335f, 0.12426868f, -0.17477989f, 0.29587331f, 0.18540604f, 0.17293724f, 0.00952887f, -0.08514610f, -0.37178913f, 0.03688003f, -0.25595799f, 0.03511639f, 0.23444562f},
  {0.14864396f, 0.01217173f, 0.10003583f, 0.08066210f, -0.01234496f, -0.39083973f, 0.19905965f, 0.07485179f, -0.17592309f, -0.12113415f, -0.09632664f, 0.06196455f, 0.04928606f, 0.16127308f, 0.50350422f, -0.23838125f, -0.01038556f, 0.04521161f, 0.23643288f, 0.09844923f, 0.35402083f, 0.05123765f, 0.02782477f, 0.36964434f, 0.05637629f, 0.34900716f, -0.18931924f, -0.08764341f, 0.14035429f, -0.03164382f, 0.30413121f, 0.40891626f},
  {0.34220913f, -0.01063939f, 0.17950556f, -0.04655799f, 0.05632211f, -0.38220116f, 0.18679328f, 0.13528863f, -0.25073260f, -0.01916515f, 0.07215999f, -0.11692947f, 0.14191845f, -0.11020564f, 0.21541098f, -0.12418397f, -0.11206110f, 0.07064381f, 0.09404401f, -0.09157065f, 0.45235151f, -0.02555387f, -0.19963068f, 0.00143817f, -0.15084015f, 0.24510348f, -0.06624475f, -0.19436726f, 0.18970713f, 0.26395017f, 0.01050355f, 0.07019190f},
  {0.31636277f, 0.18510175f, 0.07741757f, -0.18523632f, -0.04367379f, -0.32105482f, -0.00694536f, 0.10647979f, -0.16505265f, -0.04049808f, 0.23676626f, -0.20685853f, 0.13806985f, -0.26319060f, -0.05416657f, -0.19472139f, 0.08946821f, -0.05912109f, 0.08948479f, -0.15748806f, 0.18065403f, 0.03768248f, -0.06921013f, 0.04171866f, -0.12095331f, 0.19609112f, -0.10021430f, -0.02676427f, -0.15378043f, 0.30609095f, -0.46780285f, -0.22140984f},
  {0.15381636f, -0.05028383f, 0.08860777f, -0.45722881f, -0.12781380f, -0.67322546f, -0.34678638f, 0.22395833f, -0.31533965f, -0.16845375f, 0.35060701f, 0.19168440f, 0.21119463f, -0.11133091f, 0.34767935f, -0.05846185f, 0.07077371f, -0.19543868f, 0.14859328f, 0.17753483f, 0.05128621f, 0.24274021f, -0.03061111f, 0.33133301f, -0.22136699f, 0.38767549f, -0.09522455f, -0.29718369f, -0.40456611f, -0.00484066f, -0.86668402f, 0.08221322f},
  {0.03273932f, -0.53834921f, -0.00774226f, -0.63917422f, -0.52772957f, -0.64911652f, -0.54007667f, -0.26424173f, -0.28094015f, 0.12335933f, 0.48659378f, 0.18842356f, 0.19571269f, 0.13112181f, 0.47810304f, 0.44642025f, 0.01211694f, 0.36320284f, 0.08344226f, 0.30695274f, -0.07685647f, -0.25269264f, -0.16053858f, 0.28177056f, -0.08800170f, 0.17080300f, -0.05251557f, -0.09056056f, -0.23134294f, 0.07914305f, -0.46296346f, -0.00868524f},
  {-0.51382267f, -0.28996667f, 0.56928533f, -0.12839422f, -0.27012908f, 0.17450403f, 0.03700749f, -0.09567731f, 0.31603333f, 0.18692477f, 0.34352553f, -0.06023013f, 0.31647745f, -0.09424667f, 0.15994123f, 0.25027847f, 0.08079368f, 0.45290676f, 0.24872528f, 0.62735289f, -0.32445610f, -0.56356329f, 0.09999663f, 0.21034828f, -0.30381674f, 0.13485387f, 0.14737268f, -0.03677949f, -0.17225634f, -0.30641267f, -0.18623884f, -0.16924573f},
  {-0.19194506f, 0.01062120f, 0.30803251f, -0.00371082f, -0.11011738f, -0.11798676f, 0.22421969f, 0.05935052f, -0.06613871f, 0.01135738f, -0.06815736f, 0.12713273f, 0.22670443f, -0.08446001f, 0.24212612f, -0.10398312f, -0.18261312f, 0.01778263f, 0.02405192f, -0.07380822f, -0.06551541f, 0.22069536f, -0.15898480f, 0.05033374f, 0.16673183f, 0.03632383f, -0.06331301f, 0.27064416f, 0.03770021f, -0.00336006f, -0.12316614f, 0.12242549f},
  {0.16862041f, -0.30842978f, 0.10780780f, -0.13398781f, -0.28744173f, -0.42552090f, -0.25631857f, -0.12813766f, 0.27641460f, -0.16378765f, 0.20727058f, -0.35391530f, 0.06469715f, -0.07580509f, 0.44165695f, -0.10344588f, -0.21914108f, 0.22066621f, 0.22372833f, 0.27557391f, 0.12744518f, -0.09110644f, 0.11925381f, 0.59264189f, -0.08269043f, 0.08457290f, -0.31969482f, 0.19073969f, 0.21830332f, -0.05139879f, -0.42557681f, 0.21176811f},
  {0.14643927f, 0.00362421f, 0.13596489f, -0.16308086f, -0.35631034f, -0.52621204f, -0.36487371f, 0.15454139f, 0.36400819f, -0.51420724f, -0.02614481f, 0.04534598f, -0.04229220f, -0.33799428f, 0.16299315f, 0.13588674f, -0.34934947f, 0.12141595f, -0.16276592f, 0.05383331f, -0.16557418f, 0.03464526f, 0.21425848f, 0.24170536f, -0.21330002f, 0.17736848f, -0.43998617f, -0.24875768f, 0.19150233f, -0.02904304f, -0.13242352f, 0.08832669f},
  {0.02265702f, -0.15883021f, 0.13200419f, -0.37760228f, -0.23339629f, -0.32438207f, -0.34859607f, 0.09601112f, 0.19974194f, -0.21673593f, -0.01533120f, 0.05994624f, -0.14328930f, -0.54212046f, 0.03700240f, 0.01929079f, -0.49580994f, 0.16395180f, 0.04370360f, 0.12427911f, -0.10471389f, 0.21504696f, 0.12460566f, 0.23664185f, -0.07837172f, 0.22249822f, 0.02607557f, -0.22554980f, -0.01709608f, -0.40246335f, 0.16142130f, -0.09116346f},
  {0.19451207f, -0.20480596f, 0.33041355f, -0.23246849f, -0.13445571f, -0.06447902f, -0.12054517f, -0.02703004f, 0.03954047f, -0.11624306f, 0.22800146f, 0.10436182f, -0.06905703f, -0.38200393f, 0.44672734f, -0.13139020f, -0.57566589f, 0.06940275f, 0.02760396f, 0.06715883f, -0.14745884f, 0.16920118f, -0.15530919f, 0.08683066f, -0.26709509f, 0.15415026f, 0.12354221f, -0.05290869f, -0.02218109f, -0.13901715f, 0.16867584f, 0.17867762f},
  {0.36638671f, -0.16210195f, 0.30726266f, -0.25599188f, -0.12459468f, -0.06398902f, -0.15288587f, -0.05312289f, -0.09955170f, 0.07964714f, 0.18450154f, 0.10803550f, 0.08106771f, 0.28492472f, 0.48310944f, -0.33123791f, 0.08577669f, -0.04409733f, 0.03430080f, -0.00785652f, -0.24559793f, 0.21173741f, -0.41890731f, 0.11408912f, -0.22069903f, 0.02638570f, 0.15107992f, 0.32539815f, 0.01581931f, 0.07760569f, 0.05810307f, 0.08432420f},
  {0.20932712f, 0.00198731f, -0.02102249f, -0.14244896f, -0.08115569f, -0.10107087f, -0.10770585f, 0.11273635f, -0.14567541f, 0.13016485f, 0.10623892f, 0.26046240f, 0.21968168f, 0.35305291f, 0.62457651f, -0.39962757f, 0.32331058f, 0.01736761f, -0.18138447f, 0.08786783f, -0.17229576f, 0.11871693f, -0.10966887f, -0.11058155f, 0.01963513f, 0.00559761f, 0.28610945f, 0.10479212f, 0.24912314f, 0.04405009f, 0.11164062f, 0.25372678f},
  {0.22817311f, 0.07440675f, -0.13864315f, -0.05284843f, 0.08733485f, 0.02514885f, -0.01970746f, 0.11547694f, -0.12179217f, 0.01222465f, -0.11317565f, -0.04076241f, 0.04573150f, 0.23582546f, 0.35548675f, -0.30487096f, 0.34495714f, -0.10888901f, -0.17062816f, 0.18917941f, 0.20907566f, 0.06619990f, 0.02756275f, 0.12564532f, -0.11777671f, 0.29402444f, 0.20036562f, 0.17703281f, 0.05314058f, 0.05941079f, 0.07754070f, 0.23229189f},
  {0.27839813f, -0.07656532f, -0.04141705f, -0.08835761f, 0.17576799f, -0.39216748f, -0.24413809f, 0.21333356f, -0.06837222f, -0.22873096f, -0.07655991f, -0.20099232f, 0.12375808f, -0.04213170f, 0.36425832f, -0.00147743f, 0.00576890f, -0.16363153f, 0.25817955f, 0.26121166f, 0.30064180f, 0.01392129f, -0.23333566f, 0.26073420f, -0.12354873f, -0.01977675f, 0.07599042f, 0.35387608f, 0.11621258f, 0.25585157f, 0.11532163f, 0.13360219f},
  {0.40748328f, 0.12281357f, 0.06873453f, -0.38291711f, 0.05439585f, -0.43100920f, -0.31593496f, -0.00742044f, -0.06745529f, 0.09094145f, 0.15785310f, -0.21473560f, 0.00248036f, -0.08181366f, 0.28735700f, 0.09911892f, 0.10016927f, -0.16766983f, 0.37070251f, 0.09799872f, 0.45344248f, 0.05830401f, -0.12416141f, 0.35241333f, -0.16384032f, 0.02718711f, 0.19374803f, 0.09399371f, -0.18484327f, 0.16331334f, -0.15404843f, -0.22798984f},
  {0.46174672f, -0.09419029f, 0.07738501f, -0.49283206f, -0.02405090f, -0.24335420f, -0.33794776f, 0.05515866f, -0.45567098f, -0.09744874f, 0.19620344f, -0.13755564f, 0.03909941f, -0.22633801f, 0.12169304f, -0.09800085f, 0.08596123f, -0.09714538f, 0.22908339f, -0.00555336f, 0.25760964f, -0.00772782f, -0.07294022f, 0.25249624f, -0.16745247f, 0.22995189f, -0.04765807f, -0.00678487f, -0.37244454f, 0.20230485f, -0.46714473f, -0.41187543f},
  {0.40740338f, -0.10643516f, -0.06397023f, -0.64375788f, -0.25486702f, -0.50437880f, -0.39290494f, 0.07537863f, -0.17606698f, -0.02445784f, 0.16061953f, -0.08676881f, -0.16965273f, -0.05667724f, 0.34341773f, 0.20738998f, 0.01969344f, -0.34369114f, 0.02455037f, 0.03724125f, -0.08590370f, -0.05603611f, -0.12856458f, 0.21272808f, 0.13548890f, 0.24338117f, -0.28650981f, 0.01213742f, -0.21202199f, 0.18783355f, -0.69608754f, -0.35803860f},
  {0.10487954f, -0.19546397f, -0.04096315f, -0.31016651f, -0.48878458f, -0.55835968f, -0.25439852f, -0.59810579f, 0.02654639f, 0.12679794f, 0.13703676f, 0.02009346f, 0.29314041f, -0.05650667f, 0.15105040f, 0.71991104f, 0.07929359f, 0.04214213f, 0.51404113f, 0.24725275f, -0.20710498f, -0.52492577f, -0.38433731f, 0.16971663f, -0.26818255f, 0.28917661f, -0.17034735f, -0.11272625f, -0.17739345f, 0.13832422f, -0.14673814f, -0.00052672f},
  {-0.05465877f, -0.08999847f, 0.39591968f, -0.31881016f, -0.07067630f, 0.04178635f, -0.34359476f, -0.26511341f, 0.22857627f, -0.02816338f, 0.08730163f, 0.01070206f, 0.36588234f, 0.43235186f, 0.21357204f, -0.00599711f, -0.00681506f, 0.31675479f, 0.09435373f, 0.12321776f, -0.07978562f, 0.02624951f, -0.09820843f, 0.24017507f, -0.04114334f, -0.01566655f, 0.01714853f, 0.06897906f, -0.16312166f, 0.03935835f, -0.02443013f, 0.18187314f},
  {0.09132390f, -0.08846305f, 0.07472962f, 0.06662921f, -0.07780562f, 0.15619119f, 0.00917807f, -0.18040963f, 0.24735147f, 0.09847097f, -0.15255789f, -0.18748873f, 0.03337646f, -0.16065648f, 0.06643285f, -0.10846446f, -0.06927713f, -0.05458016f, 0.05258038f, 0.05733487f, 0.07925656f, -0.09603637f, -0.09201745f, 0.06414092f, -0.01638935f, -0.03688924f, 0.06103125f, 0.11950434f, -0.06463388f, -0.16317278f, -0.00969319f, -0.13888429f},
  {0.36585632f, -0.11717542f, 0.02342119f, -0.48172939f, -0.06956842f, -0.43081421f, -0.07481816f, 0.36287248f, 0.42788488f, -0.19341636f, 0.05080796f, -0.18476981f, 0.06236919f, -0.36249068f, 0.52850431f, 0.00628685f, -0.00363255f, 0.18001524f, 0.24691638f, 0.25926715f, 0.13555986f, 0.09804258f, 0.27497810f, 0.13314126f, -0.12364881f, 0.34864411f, -0.35934031f, 0.03066708f, -0.07290667f, -0.04912951f, -0.28485709f, 0.35137850f},
  {0.15875846f, -0.66597879f, -0.04564253f, -0.32897165f, -0.05386061f, 0.06078241f, -0.22101147f, -0.24624643f, 0.37901846f, -0.22139098f, 0.06672441f, -0.21541433f, 0.21842504f, -0.55829901f, 0.06589610f, 0.14639400f, -0.26937410f, 0.15872905f, 0.16868396f, 0.20761402f, -0.00410384f, -0.22179317f, -0.16689116f, 0.28450269f, -0.47349402f, 0.14276747f, 0.23725480f, -0.05331010f, 0.11755048f, -0.08930878f, -0.16303538f, 0.00847369f},
  {-0.04922409f, -0.10578554f, 0.28164044f, -0.22668388f, -0.08924047f, 0.03524565f, -0.00961110f, 0.18858990f, 0.48061997f, 0.07476306f, 0.05917294f, 0.32259011f, 0.30045956f, -0.53949374f, -0.16153236f, 0.05429343f, -0.77350456f, 0.08689965f, 0.07397244f, 0.19607009f, -0.46829778f, 0.08055991f, -0.08605869f, 0.33393741f, -0.23476821f, -0.03164056f, 0.01047847f, -0.05295633f, -0.07393011f, -0.16396645f, -0.00848401f, -0.07176352f},
  {0.21720757f, -0.05307932f, 0.48459905f, -0.26520470f, -0.06853976f, -0.05309097f, -0.12775038f, 0.12295076f, 0.39334044f, 0.02212268f, 0.08819985f, 0.27762997f, 0.24012068f, -0.25384668f, 0.18035465f, 0.08888098f, -0.52655613f, -0.08498222f, 0.09633902f, 0.05214456f, -0.22626895f, 0.00146086f, -0.09567698f, 0.19562700f, 0.21920848f, 0.00894770f, -0.00628448f, 0.04707588f, 0.16008648f, 0.04125661f, -0.08063357f, -0.19256049f},
  {0.08477374f, 0.26357797f, 0.37748966f, -0.23661396f, -0.11048139f, 0.06533518f, -0.07540047f, 0.18911038f, 0.11405227f, -0.15772928f, 0.22257413f, 0.24219759f, 0.36473557f, -0.12115428f, 0.02605077f, -0.11594046f, -0.19258089f, -0.10217658f, 0.00643395f, 0.03214169f, -0.08384173f, 0.21644206f, -0.05219261f, 0.30641916f, 0.15287235f, 0.22020899f, -0.08057982f, 0.09858626f, -0.02831625f, 0.08830104f, 0.23674966f, 0.05684371f},
  {0.29567191f, 0.21018098f, 0.11111160f, -0.35720396f, 0.04095850f, -0.13884841f, -0.16116826f, 0.28868094f, 0.03193116f, 0.19772211f, 0.11734811f, 0.23330344f, 0.26476648f, -0.09017538f, -0.01797986f, -0.03214588f, -0.21118319f, -0.17741755f, -0.13345715f, -0.18813595f, 0.03855944f, 0.31540427f, 0.07659138f, 0.13966346f, 0.23819439f, 0.24271303f, 0.17536065f, 0.19598918f, 0.15585221f, 0.15655440f, 0.26518336f, -0.12901643f},
  {0.17773283f, 0.16082108f, 0.12123309f, -0.40677142f, 0.20403963f, -0.11137680f, -0.07845949f, 0.38818207f, -0.19883338f, 0.09734622f, -0.02043652f, 0.04596804f, 0.10419258f, 0.10868309f, -0.18619908f, -0.06885882f, -0.14578456f, 0.02786840f, -0.21433775f, 0.11862246f, 0.09339309f, 0.19949766f, -0.12814327f, 0.04132239f, 0.14406380f, 0.03470069f, 0.33348265f, 0.25529152f, 0.13790891f, 0.36225572f, 0.12388936f, -0.02870712f},
  {0.16316476f, -0.04294003f, -0.10769498f, -0.33750877f, 0.20400919f, 0.04451870f, -0.02280629f, 0.17467929f, -0.28978524f, -0.02304100f, -0.25903034f, -0.19244936f, 0.01312396f, 0.12107363f, -0.27565533f, 0.08311559f, -0.03154523f, -0.08255325f, 0.00754449f, 0.04759683f, 0.27007091f, 0.06337862f, 0.05247649f, 0.31394473f, 0.07853895f, 0.04398094f, 0.27633491f, 0.16919726f, -0.06167815f, 0.29911160f, 0.09571633f, -0.21868829f},
  {0.12744433f, -0.11779729f, -0.03055541f, -0.39362207f, 0.02984474f, -0.07273959f, -0.23677833f, 0.21244234f, -0.36533216f, -0.03910841f, -0.05052795f, -0.30378371f, -0.35879803f, -0.09635555f, -0.15972993f, 0.16266572f, 0.09257469f, 0.05832510f, 0.24800470f, 0.18375814f, 0.33376297f, 0.08524702f, 0.10551912f, 0.38202304f, 0.05155512f, 0.15739082f, 0.19594999f, 0.23660523f, -0.04844560f, 0.28653574f, -0.44473204f, -0.34466431f},
  {0.30913964f, -0.06650104f, 0.09385341f, -0.25263667f, -0.23877726f, -0.30841962f, -0.21377024f, -0.20744905f, -0.27661735f, 0.13566640f, -0.05047680f, -0.37823829f, -0.13724208f, 0.07052939f, -0.30267677f, 0.16791858f, -0.01428859f, -0.20937815f, 0.12297118f, -0.08620393f, 0.31487766f, -0.35322556f, 0.42908016f, 0.31154817f, 0.23728508f, 0.08181463f, 0.10750064f, 0.30887327f, -0.05840643f, 0.16635160f, -0.57593131f, -0.37298229f},
  {0.34747815f, 0.20418771f, -0.02900781f, -0.07442654f, -0.38391379f, -0.27216846f, -0.26525137f, -0.01949638f, -0.24714468f, 0.16129467f, 0.03163509f, -0.12948918f, 0.11939394f, 0.10006865f, -0.12707116f, 0.52820247f, 0.12333057f, -0.21040007f, 0.26853701f, -0.10030647f, 0.01046746f, -0.31774056f, -0.07681905f, 0.13284299f, 0.27660218f, 0.32415488f, -0.29032072f, 0.26319489f, -0.03279025f, -0.18337288f, -0.50808549f, -0.21624885f},
  {0.05855270f, 0.21014674f, 0.04222699f, 0.09737827f, -0.33450887f, -0.08396975f, -0.23740263f, -0.35717359f, 0.12738539f, 0.05923688f, -0.01504209f, 0.04790633f, 0.23724869f, 0.02891297f, -0.03351120f, 0.60279310f, 0.11181214f, -0.32048032f, 0.21482912f, -0.02602523f, 0.17356300f, -0.08212752f, -0.01798246f, 0.05504852f, -0.10772474f, 0.07479011f, -0.30333450f, 0.26688963f, 0.16180892f, 0.08217012f, -0.17806312f, 0.04439510f},
  {0.25481737f, -0.14438699f, -0.19790341f, 0.16275008f, -0.03912323f, 0.08046126f, -0.46730900f, -0.30433965f, 0.11919963f, -0.07301448f, -0.10771054f, -0.27824184f, 0.04836167f, 0.14417270f, 0.15132913f, 0.17860408f, 0.14404188f, 0.19953851f, -0.09922266f, 0.08083169f, -0.00009766f, -0.02412702f, -0.20240735f, -0.00817436f, -0.16046223f, -0.40822977f, -0.19749975f, -0.16189986f, 0.07445066f, 0.21728526f, -0.10082958f, -0.01587438f},
  {-0.04986083f, 0.11774011f, -0.09279305f, 0.06483872f, -0.03392638f, 0.14707853f, 0.09397025f, 0.06979901f, -0.05181152f, 0.15405892f, -0.14526784f, 0.02418482f, -0.08023244f, 0.02703479f, -0.01289006f, -0.04811118f, -0.14683996f, -0.09026739f, 0.01941554f, 0.15364237f, 0.08167465f, -0.11876269f, 0.13327859f, -0.03868283f, 0.05291554f, 0.15709879f, 0.13031323f, 0.11882125f, -0.13406582f, -0.08437211f, 0.10845537f, 0.03561117f},
  {0.24631061f, -0.18026841f, -0.46880767f, -0.13746093f, 0.18559654f, -0.01153916f, 0.28533089f, 0.19451387f, 0.25240815f, -0.13732098f, -0.36256552f, -0.21672159f, 0.36466277f, -0.02912146f, -0.09735711f, -0.30912179f, -0.17899963f, 0.47864237f, 0.12031699f, 0.03818005f, 0.42222643f, 0.28844523f, -0.19545370f, -0.17628299f, -0.21700242f, 0.19782056f, -0.40159547f, -0.03675265f, 0.31047204f, 0.18398772f, -0.47086564f, 0.38001338f},
  {0.20365773f, -0.10141766f, -0.34568942f, 0.12026419f, 0.40497655f, 0.06408213f, 0.46468663f, 0.16549578f, 0.37064075f, 0.02103482f, -0.58714610f, -0.08534062f, 0.56125796f, -0.16163069f, -0.27790427f, -0.31432623f, -0.21236014f, 0.33838099f, 0.07784051f, 0.36358812f, 0.22941874f, -0.00814567f, -0.58563846f, -0.53037769f, -0.61827850f, -0.06020783f, -0.41079023f, -0.21591341f, 0.22253443f, 0.05581516f, -0.52106816f, 0.72434574f},
  {0.04905393f, -0.09286501f, -0.12080417f, 0.10018603f, 0.24255617f, 0.02827553f, 0.27590954f, 0.24787326f, 0.34505761f, 0.03816881f, -0.54491138f, -0.05643044f, 0.32200131f, -0.41591218f, -0.66823548f, -0.14469971f, 0.00416412f, 0.24986610f, -0.12979016f, 0.32350683f, 0.26785824f, -0.06753460f, -0.05373775f, -0.49501824f, -0.43296722f, 0.11863039f, -0.45908716f, -0.37802052f, 0.27825400f, -0.08376478f, -0.30392233f, 0.56740844f},
  {0.27436554f, -0.06319197f, 0.03681776f, 0.07826999f, 0.12010353f, 0.10889607f, 0.20268396f, 0.47511682f, 0.17279746f, 0.13719971f, -0.30972654f, 0.01212713f, 0.13092880f, -0.31119591f, -0.58067840f, -0.13302967f, -0.10047662f, 0.00301138f, 0.01604499f, 0.16334714f, 0.13926904f, 0.19283608f, 0.18927415f, -0.55017793f, -0.33560500f, 0.27282691f, -0.53651422f, -0.32612237f, 0.13643764f, 0.27419069f, -0.06325337f, 0.20011263f},
  {0.29890981f, -0.03905937f, -0.02137510f, 0.02070923f, 0.15729746f, 0.17575054f, 0.08992779f, 0.58148652f, 0.05968472f, 0.13064660f, -0.10342515f, 0.12670256f, 0.26042274f, -0.28091604f, -0.81084710f, 0.02305312f, -0.19113088f, 0.14696747f, -0.05378648f, 0.19387524f, 0.23006028f, 0.33907086f, 0.06824839f, -0.47634035f, 0.06937348f, 0.36226243f, -0.45375812f, -0.13621292f, -0.05135997f, 0.20292090f, 0.02886513f, 0.19712955f},
  {0.16412981f, -0.14203811f, -0.24788122f, -0.27812776f, -0.00120696f, -0.03636968f, 0.22821701f, 0.50686496f, -0.14011450f, 0.12527914f, -0.17641038f, 0.24044532f, 0.29667619f, -0.13390511f, -0.92490238f, 0.13846445f, -0.34475330f, 0.33512667f, -0.02981154f, 0.07760601f, 0.02721690f, 0.56170130f, 0.01317365f, -0.32069904f, 0.06790648f, 0.29817921f, -0.28628656f, -0.15214102f, -0.05311256f, 0.14009556f, 0.04765662f, 0.18078750f},
  {0.25780562f, -0.09309146f, -0.39599892f, -0.10568292f, 0.04240575f, -0.04520972f, 0.25545877f, 0.51644629f, -0.22844256f, -0.04496552f, -0.19433458f, 0.21260713f, 0.21311142f, 0.02293403f, -0.74178040f, 0.01509557f, -0.31920296f, -0.11735595f, -0.14362429f, 0.24641362f, -0.05169625f, 0.50270557f, 0.20171577f, -0.21233694f, 0.31895360f, 0.31675756f, -0.19224560f, 0.35665140f, -0.04714904f, 0.08385917f, 0.13064988f, -0.02131736f},
  {0.25271124f, -0.18532206f, -0.40719235f, -0.14204110f, -0.03932795f, -0.12259682f, 0.06160418f, 0.16365388f, -0.04861812f, 0.07740635f, -0.41570923f, 0.32841048f, 0.14619568f, 0.02269181f, -0.66751587f, 0.03672196f, -0.16898449f, -0.00560976f, -0.16685757f, 0.02261766f, 0.24926676f, -0.01113797f, 0.02056448f, -0.16901511f, 0.19329670f, 0.39486325f, -0.39178583f, 0.37434793f, -0.02929612f, 0.19051827f, 0.02119272f, 0.02123707f},
  {0.09196891f, -0.00293987f, -0.38339159f, -0.08541992f, -0.04733701f, 0.02970349f, -0.00330395f, 0.01369786f, -0.10770882f, 0.23296785f, -0.65890598f, 0.08106656f, 0.05002834f, -0.25542513f, -0.47732854f, 0.39593634f, 0.01785846f, -0.42231619f, 0.05547358f, -0.09702037f, 0.23045784f, -0.17637061f, 0.15059844f, -0.22668162f, -0.03253570f, 0.31013766f, -0.24536051f, 0.03236526f, 0.11610068f, 0.22009814f, -0.14944194f, -0.15558092f},
  {-0.05153472f, 0.20893194f, -0.15355025f, 0.11826647f, -0.10847744f, -0.17598334f, -0.03096161f, -0.17164503f, -0.15676899f, 0.07317041f, -0.65184021f, -0.06980702f, 0.12450622f, -0.24580148f, -0.23632069f, 0.40872920f, 0.16026746f, -0.18126124f, 0.25099653f, -0.26307416f, 0.33592945f, -0.36440793f, -0.12099658f, -0.32780692f, -0.04987601f, 0.38998911f, -0.20028456f, 0.20932032f, -0.11592078f, 0.01903875f, -0.20883830f, -0.05691592f},
  {0.05662100f, 0.20571618f, 0.01320977f, 0.03095421f, -0.54269242f, -0.09548141f, 0.05123703f, -0.05765530f, -0.07218982f, -0.26787686f, -0.24754763f, -0.06311674f, 0.05381669f, 0.03308909f, -0.02862249f, 0.52462536f, -0.08563948f, -0.25274369f, 0.29159313f, -0.30930665f, 0.49911928f, -0.11415292f, -0.21122293f, -0.23409130f, 0.04952094f, 0.27667096f, -0.44540724f, 0.34132260f, 0.22856820f, 0.24562478f, -0.30004114f, 0.05026245f},
  {0.33270374f, -0.19337186f, -0.03314037f, -0.09174731f, -0.53376031f, 0.01048543f, -0.32884571f, -0.02004110f, 0.24006784f, -0.13205381f, -0.02407123f, -0.19165754f, 0.17542018f, 0.03061371f, 0.41477096f, 0.28802124f, 0.09248059f, -0.13280077f, 0.11190197f, 0.18360041f, -0.22340471f, 0.01636058f, -0.28195795f, 0.22211042f, -0.30738172f, 0.31207144f, -0.04140937f, 0.38294521f, 0.15668966f, -0.08428033f, -0.20692296f, 0.27780542f},
  {-0.22819440f, -0.01601927f, 0.17806266f, -0.04631317f, -0.14805023f, -0.10693460f, 0.03998669f, -0.10673600f, 0.07211603f, 0.13870470f, 0.11335406f, -0.20582604f, 0.04645306f, 0.10229950f, 0.24302091f, -0.13382754f, -0.00783155f, -0.00150318f, 0.02162437f, 0.18666634f, 0.00286886f, -0.20933186f, 0.06723696f, 0.22596604f, -0.20532516f, 0.05835308f, 0.28539553f, 0.12668394f, -0.13473855f, -0.06215204f, -0.11793176f, 0.07883143f},
  {-0.02746278f, 0.00607087f, -0.11956237f, -0.01343524f, 0.11449055f, -0.10580754f, -0.05381764f, 0.05016339f, 0.03259312f, 0.00341387f, -0.06315313f, -0.01804209f, -0.08389009f, 0.11575486f, 0.10021220f, 0.12526499f, 0.05152284f, -0.05867781f, -0.09199276f, -0.00970520f, 0.09032665f, -0.10349406f, 0.06050327f, -0.00039902f, 0.00807564f, 0.13857536f, 0.15129142f, -0.06870848f, -0.12377544f, -0.06413582f, 0.06852241f, 0.11369477f},
  {-0.09695262f, 0.25197768f, 0.07381107f, -0.05614399f, -0.16316561f, -0.06641588f, 0.23141976f, -0.16339837f, 0.20022859f, -0.08221831f, 0.01229922f, 0.08313581f, -0.23286375f, 0.13424794f, 0.13612369f, 0.21202630f, 0.16783595f, -0.07127527f, -0.19276939f, 0.02168389f, 0.05348693f, 0.03979445f, -0.04916647f, -0.16579308f, -0.01816913f, 0.07556064f, -0.15781160f, -0.05611437f, 0.26200613f, -0.08420027f, 0.15355477f, -0.25972065f},
  {0.10249270f, 0.22840723f, 0.17299144f, 0.28564119f, -0.24346648f, -0.32700023f, 0.38434786f, -0.19176863f, 0.45140105f, 0.12670122f, -0.35007021f, 0.08631917f, -0.01132852f, -0.23194346f, -0.15480383f, 0.26091236f, 0.22991802f, -0.29301554f, 0.05690147f, -0.14761201f, 0.17852756f, -0.40917268f, -0.45502123f, -0.44294384f, -0.34215555f, 0.17797647f, -0.07472282f, -0.15985231f, 0.36606213f, -0.31641591f, -0.07184888f, -0.04918265f},
  {-0.27456456f, 0.14843006f, 0.34821242f, 0.34147510f, -0.01504608f, -0.09551794f, 0.49663758f, -0.10599240f, 0.17671494f, 0.32793009f, -0.59969044f, 0.14252245f, 0.21223249f, -0.33694905f, -0.30168927f, 0.23328909f, 0.28424883f, -0.22813588f, -0.06055658f, 0.13264544f, 0.30100524f, -0.23124081f, -0.48574853f, -0.61165589f, -0.79395515f, 0.06767992f, -0.46298373f, -0.19145688f, 0.22662142f, -0.03834153f, -0.50193751f, 0.19965398f},
  {0.14901917f, 0.14640041f, -0.18124801f, 0.44465718f, 0.02937915f, -0.03463090f, 0.50142491f, -0.29604501f, 0.29520214f, 0.50570518f, -0.85688150f, 0.52467507f, 0.37256661f, -0.39506838f, -0.53900719f, 0.26327106f, 0.14172053f, -0.12346345f, -0.28946021f, 0.10269610f, 0.11665216f, -0.42381591f, -0.68961537f, -0.39172018f, -0.79279077f, 0.09952967f, -0.59212142f, 0.15856300f, 0.04091933f, 0.26975146f, -0.39656180f, 0.27337149f},
  {-0.00517415f, 0.11009818f, -0.24554740f, 0.31915179f, -0.11855088f, 0.01474336f, 0.65282309f, -0.16500245f, 0.05643988f, 0.46507704f, -1.02834880f, 0.28085285f, 0.30533895f, -0.40704349f, -0.34440562f, 0.22890861f, 0.44641379f, 0.04984004f, -0.43919221f, 0.10450952f, 0.02685386f, -0.13344680f, -0.49198058f, -0.50569874f, -0.87470716f, 0.28267953f, -0.53189278f, 0.20532168f, 0.11891878f, 0.10578003f, -0.25000107f, 0.23591040f},
  {0.13662429f, 0.33508125f, 0.07269390f, 0.14917858f, -0.15956657f, 0.12524942f, 0.37317950f, -0.32734272f, 0.05861045f, 0.29669407f, -0.97401607f, 0.40383041f, 0.53056693f, -0.70539623f, -0.29187199f, 0.35137478f, 0.46518746f, -0.07492544f, -0.24449308f, -0.07375720f, -0.02811213f, -0.27530861f, -0.45093632f, -0.75764841f, -0.51751924f, 0.25274926f, -1.06036842f, -0.12750252f, 0.23180342f, 0.03022133f, -0.37396854f, 0.47361293f},
  {-0.01942756f, 0.25566724f, -0.15843223f, 0.34099287f, -0.23694465f, 0.13055332f, 0.54748499f, -0.45658582f, 0.21610035f, 0.46649307f, -0.91241747f, 0.58065760f, 0.68327373f, -0.59206122f, -0.30506685f, 0.42706648f, 0.27439469f, 0.11105675f, -0.18674409f, 0.17646122f, -0.03652243f, -0.59120822f, -0.62623477f, -0.94955206f, -0.90022027f, 0.24650483f, -0.97201991f, 0.29511306f, 0.06913824f, 0.14279439f, -0.26792544f, 0.45904881f},
  {-0.08098214f, -0.01480052f, -0.12377720f, 0.13002720f, -0.06240625f, 0.07672221f, 0.49231738f, -0.17294535f, 0.23306170f, 0.30855766f, -0.88237047f, 0.51091295f, 0.71695155f, -0.48980182f, -0.03310639f, 0.37470895f, 0.38144782f, 0.17414664f, -0.42992574f, 0.28623119f, -0.13667475f, -0.30699670f, -0.90424365f, -0.75387120f, -0.74779946f, 0.29940209f, -1.04560077f, 0.08544385f, 0.04709555f, 0.17984621f, 0.09319358f, 0.40669110f},
  {-0.35288668f, 0.06161055f, 0.14596151f, 0.20565267f, 0.00863731f, 0.20446944f, 0.53891754f, -0.26671958f, 0.13466223f, 0.57068032f, -0.67913854f, 0.49226886f, 0.71929473f, -0.44249347f, -0.07116819f, 0.21204820f, -0.04886547f, -0.22310774f, -0.06579104f, 0.28764829f, -0.22099753f, -0.26494879f, -0.60001051f, -0.51894534f, -0.85345501f, 0.08517636f, -0.77077442f, 0.30665803f, -0.03445825f, 0.15786290f, -0.26277241f, 0.35690159f},
  {-0.04236779f, -0.12777296f, -0.10730253f, 0.17311311f, -0.21200433f, 0.01490926f, 0.36314920f, -0.15199235f, -0.07530711f, 0.29020059f, -0.41756597f, 0.33282799f, 0.31121233f, -0.25830147f, -0.09224689f, 0.28621477f, -0.02632198f, -0.15377000f, -0.26218754f, 0.00910354f, 0.07913311f, -0.24546289f, -0.66871756f, -0.59050816f, -0.59107506f, 0.13430817f, -0.44446370f, 0.07501263f, -0.05508196f, -0.05378408f, -0.19943592f, 0.25770837f},
  {-0.17248046f, -0.07447588f, -0.24256992f, 0.38643262f, 0.19500357f, 0.20527670f, 0.13929611f, -0.17495431f, -0.23189320f, 0.00645509f, -0.20104153f, 0.33117622f, 0.33130616f, -0.03324945f, 0.13291603f, 0.05608088f, -0.02276066f, 0.04404249f, -0.17010142f, -0.28568050f, -0.25687888f, -0.05340876f, -0.49800301f, -0.28183329f, -0.37911043f, -0.04752485f, -0.00751997f, -0.10995737f, -0.23259157f, 0.34995225f, 0.14105281f, 0.20240127f},
  {0.03802432f, -0.06408881f, 0.11784251f, 0.22856241f, -0.15795651f, -0.11722862f, 0.18074438f, -0.02547251f, -0.14152391f, -0.15899482f, 0.00574001f, -0.01288988f, 0.10055019f, -0.20847623f, -0.08432262f, 0.10890081f, 0.04150264f, -0.12708701f, 0.04444992f, 0.08702321f, -0.02772792f, -0.13501164f, -0.01465181f, -0.22887352f, -0.00749701f, 0.18176924f, -0.02258067f, -0.13615021f, 0.09669583f, -0.08853244f, -0.00291068f, 0.13973399f},
  {0.10527284f, 0.13865630f, -0.13244969f, -0.13748777f, 0.04144964f, 0.11123250f, 0.15398245f, -0.14136027f, -0.01358210f, 0.08167298f, -0.03942902f, 0.06786355f, 0.13504840f, 0.07311340f, 0.10771318f, -0.07865954f, 0.13592778f, 0.04121824f, 0.07717621f, -0.02073394f, 0.08767390f, -0.15064122f, 0.11109935f, 0.10060953f, -0.04575569f, 0.02073240f, -0.08157820f, -0.12703848f, 0.09828047f, -0.02842154f, -0.12771714f, -0.15613480f},
};

const float layer0_biases[32] = {
  0.12168694f, -0.08683792f, -0.13865562f, 0.28472760f, -0.04514730f, 0.48483971f, 0.05960188f, -0.19076605f, 0.12768999f, -0.10080764f, 0.02113648f, -0.09768294f, 0.22554149f, 0.38378677f, 0.32563707f, 0.22539149f, 0.09668847f, 0.07909828f, 0.13305216f, 0.27016076f, 0.10593458f, -0.02410354f, -0.05770347f, 0.19558719f, 0.08102875f, 0.01218662f, 0.07422809f, -0.05932827f, 0.09701714f, 0.33365494f, 0.14602605f, 0.20498186f
};

// Layer 1 weights (32, 10)
const float layer1_weights[32][10] = {
  {-0.58835322f, 0.07005171f, -0.45309368f, -0.15973622f, -0.95945227f, 0.62387431f, -0.00133648f, -1.17317486f, -0.10389097f, -0.36847249f},
  {0.58069092f, -0.80043459f, -0.30695942f, -0.20491867f, 0.04879821f, -0.25828162f, -0.01899925f, -0.49641955f, -0.11221317f, 0.57090783f},
  {0.51058459f, 0.39700192f, 0.48795512f, -0.33516604f, 0.25853294f, -0.77492923f, 0.53111768f, -0.18998957f, 0.00444179f, 0.61668909f},
  {-0.20586814f, -0.21988295f, -0.14324647f, -0.47859895f, 0.31901804f, -0.55367976f, 0.19598682f, 0.50825763f, -1.29611123f, 0.39188388f},
  {-0.28794965f, 0.47013593f, -0.76177555f, 0.35249296f, 0.23783782f, -0.77517915f, 0.23645692f, 0.47529420f, 0.41664210f, -0.04229012f},
  {-0.50934368f, 0.27520719f, -0.89690232f, -0.85417360f, 0.02632101f, 0.98848861f, -0.77458286f, 0.72079569f, -0.69527072f, -0.10033319f},
  {0.05004292f, -0.67029488f, -0.32114208f, 0.19011652f, 0.08179606f, -0.41185603f, -0.21390729f, 0.67978472f, -0.27960941f, 0.61338151f},
  {0.41900626f, -0.63815147f, 0.20823811f, 0.66459459f, -0.47236845f, 0.13759308f, -0.06282087f, -0.57620752f, 0.34042674f, -0.43575513f},
  {-0.69919282f, 0.28427401f, -1.76594293f, 0.48804557f, 0.95015860f, -0.37682953f, -0.79334730f, -0.52307361f, -0.58274847f, 0.90291786f},
  {0.20308907f, 0.40689614f, 0.45456260f, 0.08918033f, -0.72948575f, -1.20012271f, -0.31743827f, 0.50714624f, 0.55303937f, 0.27026036f},
  {-0.34596008f, 0.06232203f, 0.75724530f, -0.81146348f, 0.33293781f, -0.43421331f, 0.46774524f, -0.17803141f, 0.27945924f, -0.88936317f},
  {0.45303300f, -0.69848144f, 0.09615563f, -0.45800889f, -0.68451530f, -0.16997847f, -0.13543229f, 0.51119125f, 0.50796849f, 0.24232738f},
  {0.14046331f, -0.08213104f, 0.35370842f, 0.22400063f, -1.23270965f, 0.20180950f, -1.13396680f, 0.70325732f, -0.57908690f, 0.07075039f},
  {-0.05533551f, -1.22190678f, -0.17047636f, -1.11765981f, 0.55338120f, 0.32012033f, 0.63371634f, 0.13120528f, -0.11368051f, -0.60411924f},
  {0.18071692f, 0.01541060f, 0.28374481f, -0.04848458f, -0.61427295f, 0.13724609f, 0.58587319f, -1.32920027f, -0.75683141f, -0.96468884f},
  {-0.32878265f, 0.26064113f, 0.21337768f, -0.41671875f, -0.18959668f, 0.51730525f, -1.05086923f, -0.14104076f, 0.15633380f, 0.58815032f},
  {-0.08479556f, 0.47485322f, -0.04148629f, -0.69417554f, -0.12500918f, -0.97256595f, 0.41450292f, -0.93074399f, -0.73730230f, 0.42109758f},
  {-0.32468808f, 0.33151796f, 0.11102573f, 0.44078189f, -0.93548161f, -0.44668183f, -0.29085365f, 0.57977945f, -0.95689052f, -1.17136717f},
  {-0.41429427f, 0.78031737f, 0.85736746f, 0.50283301f, 0.38031322f, -0.82165176f, -1.18044710f, 0.00408993f, -0.43644139f, -0.16838095f},
  {-1.13337159f, 0.74996591f, 0.42649046f, 0.55704415f, -0.21602274f, -0.26949796f, -1.26045871f, 0.75039673f, -0.27952671f, -0.68107694f},
  {-0.97636151f, 0.20483108f, -0.30058149f, 0.50405014f, 0.43404755f, 0.30884263f, 0.36100966f, -0.35583156f, 0.20938483f, 0.33736399f},
  {0.62810880f, -0.32674551f, -0.53647131f, 0.50756353f, -0.30931035f, 0.38777572f, -0.50523812f, -0.56889069f, 0.43644887f, -0.57035840f},
  {-0.79128957f, -0.51128542f, 0.27350429f, 0.15440455f, 0.71001738f, -0.47315979f, -0.55709022f, -0.23221752f, 0.39607596f, -0.18920749f},
  {0.28380841f, 0.55215263f, 0.68541110f, 0.11907372f, 0.12066253f, -0.11022423f, -0.28767645f, -0.50044847f, -0.04420541f, -1.10177267f},
  {0.28392798f, -0.76473492f, -0.11947870f, -0.60077000f, 0.73991132f, 0.14176577f, -0.34484249f, -0.11267031f, 0.32577571f, -0.02122369f},
  {-0.62616098f, -0.21419993f, 0.50800174f, 0.55047208f, -0.35294974f, 0.31131420f, 0.03194849f, -0.46289438f, 0.44470304f, -0.01627383f},
  {0.04050328f, 0.51325524f, 0.16193244f, -0.94908142f, -0.62172776f, -0.52258962f, 0.60569566f, 0.22419345f, 0.02708584f, -1.16043150f},
  {0.81271029f, -0.56366736f, 0.90730381f, -0.25079843f, -0.61257660f, -0.85561413f, -0.93148893f, -0.55767184f, 0.33297241f, 0.88226020f},
  {0.06810074f, -0.56978154f, -0.64372689f, -0.33504009f, 0.18133566f, 0.73877198f, 0.53910416f, -0.49557796f, -0.54587561f, 0.17819484f},
  {0.40114805f, 0.57016492f, -0.91160780f, -0.47435036f, -0.11380381f, 0.59494066f, 0.14659040f, 1.01379931f, -1.36465514f, -0.88832515f},
  {-0.07627461f, 0.27382380f, -1.15252674f, -0.78729522f, -0.18471791f, 0.70969903f, 0.36561871f, -0.90745497f, 0.56362295f, -0.11236539f},
  {0.37846813f, -0.82529765f, 0.12960611f, 0.30714914f, -0.33714932f, 0.18962121f, 0.30775410f, 0.47657046f, -0.61952972f, -0.11327390f},
};

const float layer1_biases[10] = {
  -0.28893405f, 0.15627846f, 0.06985511f, -0.04036293f, -0.00260856f, 0.24164630f, -0.14092587f, 0.16263866f, -0.22338918f, 0.05825841f
};

